~o
<STREAMINFO> 1 39
<VECSIZE> 39<NULLD><MFCC_E_D_A_Z><DIAGC>
~v "varFloor1"
<VARIANCE> 39
 1.826286e-01 2.386199e-01 2.998010e-01 3.849762e-01 3.854722e-01 4.145825e-01 3.878456e-01 3.761096e-01 3.826564e-01 3.807625e-01 3.710584e-01 2.752016e-01 3.818852e-02 1.784447e-02 1.984995e-02 2.452179e-02 3.060505e-02 3.223349e-02 3.098722e-02 3.144052e-02 3.117540e-02 3.022251e-02 2.862270e-02 2.776248e-02 2.153156e-02 3.305388e-03 3.195224e-03 3.504729e-03 3.922283e-03 5.030566e-03 5.632933e-03 5.593314e-03 5.666940e-03 5.818664e-03 5.510793e-03 5.245092e-03 5.096623e-03 4.051595e-03 4.248531e-04
~s "N2m"
<NUMMIXES> 16
<MIXTURE> 1 4.004250e-02
<MEAN> 39
 7.950639e+00 6.922600e-01 3.655114e+00 7.174011e+00 -3.873179e+00 -2.963929e+00 3.292513e+00 -9.052503e+00 -5.085075e+00 3.617453e+00 -4.713515e+00 -3.016280e+00 1.412767e+01 2.255708e-01 8.219011e-01 9.765279e-01 1.277167e+00 -7.627407e-01 2.963029e-01 1.275205e+00 -2.667041e+00 -7.215144e-01 1.121784e+00 -8.482584e-01 4.952786e-01 -3.195015e-01 -1.044276e-01 -1.591117e-01 -2.276130e-01 -6.670250e-01 4.612325e-02 1.535978e-01 -5.337631e-01 9.089724e-01 3.454720e-01 -6.194481e-01 3.418804e-01 -5.256068e-02 1.374530e-01
<VARIANCE> 39
 7.632521e+00 1.526863e+01 2.384480e+01 2.731638e+01 2.961712e+01 3.398134e+01 2.907948e+01 3.847012e+01 3.387372e+01 2.552138e+01 3.690183e+01 3.035087e+01 2.121769e+00 4.693842e-01 1.062645e+00 1.457521e+00 2.140349e+00 2.280902e+00 2.867459e+00 2.565861e+00 3.885509e+00 3.102214e+00 2.859328e+00 2.867510e+00 2.137667e+00 5.219558e-02 8.553115e-02 1.641219e-01 2.954185e-01 2.478082e-01 4.380027e-01 3.672627e-01 3.286851e-01 4.198304e-01 3.530534e-01 3.060200e-01 3.869938e-01 3.408141e-01 9.017952e-03
<GCONST> 9.739903e+01
<MIXTURE> 2 4.508072e-02
<MEAN> 39
 7.023491e+00 -1.081319e+00 2.510757e+00 1.041900e+00 -5.268119e+00 -7.706502e-02 -4.130026e+00 1.854013e+00 -6.564230e+00 -1.512929e+00 1.624012e+00 -7.214621e+00 1.550430e+01 4.309052e-01 1.047841e+00 -7.154941e-02 1.138027e+00 4.852508e-01 -5.484859e-01 1.035379e+00 -1.268646e+00 -6.400537e-01 8.839878e-01 -6.149009e-01 2.723629e-01 -4.092719e-01 -2.319018e-01 2.197651e-01 7.627025e-02 -1.095623e-01 7.880788e-02 -1.521644e-01 4.051855e-01 -3.116242e-01 2.636779e-01 -7.820519e-02 -3.766498e-01 4.861428e-01 1.872227e-02
<VARIANCE> 39
 1.121360e+01 1.618789e+01 3.979373e+01 2.695280e+01 4.426995e+01 3.840134e+01 4.007186e+01 3.810223e+01 4.471944e+01 3.655317e+01 3.102212e+01 3.084976e+01 2.277524e+00 6.346335e-01 1.199400e+00 2.203676e+00 2.301740e+00 2.708760e+00 3.133927e+00 2.882958e+00 3.744246e+00 3.007686e+00 2.532609e+00 2.762540e+00 2.094242e+00 5.691530e-02 1.118912e-01 1.868739e-01 2.351332e-01 2.108052e-01 4.623156e-01 2.999822e-01 3.797423e-01 4.112123e-01 4.286526e-01 3.567811e-01 3.163207e-01 2.795376e-01 6.706723e-03
<GCONST> 1.004877e+02
<MIXTURE> 3 4.320671e-02
<MEAN> 39
 7.231932e+00 1.960469e+00 3.069218e+00 2.118335e+00 -7.254002e+00 -7.008968e+00 -6.904170e-01 -4.878443e+00 -4.406762e+00 -7.241416e+00 -4.522271e+00 1.113065e+00 1.473044e+01 7.304363e-01 1.935958e+00 1.830371e+00 5.839382e-01 -1.382985e+00 9.669514e-01 1.431133e-01 -2.780458e+00 3.241769e-01 2.101028e-01 1.770191e-01 1.437606e-01 -4.731908e-01 -1.137830e-01 -3.838422e-01 -5.034360e-01 -4.294255e-01 5.448229e-01 4.623242e-01 -3.430845e-01 2.127316e-01 -2.242943e-02 1.483067e-01 4.636335e-02 -4.071374e-01 1.428864e-01
<VARIANCE> 39
 7.673403e+00 1.646721e+01 2.405358e+01 2.526254e+01 3.119879e+01 4.507982e+01 4.223099e+01 4.502816e+01 5.552850e+01 3.347016e+01 4.388506e+01 3.559863e+01 2.434362e+00 9.075298e-01 1.676362e+00 2.877020e+00 2.736484e+00 4.306664e+00 5.081350e+00 6.101330e+00 5.824684e+00 5.731699e+00 4.784321e+00 4.197882e+00 3.934896e+00 8.109495e-02 1.000993e-01 1.899941e-01 3.181870e-01 2.627516e-01 4.454097e-01 4.483976e-01 5.139421e-01 5.820104e-01 5.809670e-01 4.038154e-01 4.784143e-01 3.847906e-01 7.913804e-03
<GCONST> 1.089963e+02
<MIXTURE> 4 6.070034e-02
<MEAN> 39
 8.054798e+00 2.042513e+00 3.275467e+00 6.080341e+00 -4.370488e+00 -2.763642e+00 7.312470e-02 -3.674418e+00 -4.439340e+00 -1.123862e+00 -8.672569e-01 -3.419221e+00 1.385856e+01 1.361500e+00 5.209472e-01 -1.424375e+00 2.291433e+00 1.095620e+00 -8.134667e-01 5.003527e-01 -1.561515e+00 2.717727e-01 5.362601e-01 -1.011311e+00 6.981939e-02 -5.523355e-01 -4.115449e-01 -2.413840e-02 5.330536e-01 -6.916024e-01 -4.698997e-01 2.729764e-01 2.731535e-02 8.000541e-02 -4.317386e-02 -8.251766e-04 9.108979e-02 6.411011e-02 1.779628e-01
<VARIANCE> 39
 7.579951e+00 1.668248e+01 1.617216e+01 2.356588e+01 2.391855e+01 2.400945e+01 3.029152e+01 3.714622e+01 3.341881e+01 3.045156e+01 2.644081e+01 2.809732e+01 1.934505e+00 6.987836e-01 1.808102e+00 2.699129e+00 2.550558e+00 3.145357e+00 4.605331e+00 4.093651e+00 4.677478e+00 3.850969e+00 3.676199e+00 3.123475e+00 2.603153e+00 7.903723e-02 8.994207e-02 2.013846e-01 1.993234e-01 2.301875e-01 2.819346e-01 3.102560e-01 3.232459e-01 3.471449e-01 3.246770e-01 2.866389e-01 2.758198e-01 2.374051e-01 8.787706e-03
<GCONST> 9.847969e+01
<MIXTURE> 5 6.517725e-02
<MEAN> 39
 6.376925e+00 3.611260e+00 3.864245e+00 -2.760949e+00 -7.453485e+00 5.472239e-02 -4.907655e+00 -9.000607e+00 -5.721486e+00 -9.634908e-01 -5.750286e+00 -3.544898e+00 1.513237e+01 2.059426e+00 2.416569e-01 -1.806337e+00 3.278597e+00 7.039477e-01 -1.194196e+00 -3.395953e-01 -5.247248e-01 5.132128e-01 -5.759653e-01 -1.879564e-01 1.134033e-01 -5.511113e-01 -2.630634e-01 -6.051328e-02 1.866800e-01 -3.101045e-01 -8.932353e-02 -7.987767e-02 1.941500e-01 2.625876e-01 1.692561e-02 -1.996916e-01 1.406027e-01 3.610865e-02 1.147289e-01
<VARIANCE> 39
 1.040942e+01 1.885621e+01 1.975383e+01 3.942947e+01 2.846624e+01 3.292141e+01 4.281802e+01 4.150846e+01 4.271005e+01 3.712094e+01 4.756313e+01 3.796222e+01 1.962332e+00 6.395204e-01 1.622655e+00 2.299572e+00 2.979481e+00 3.897156e+00 4.846992e+00 5.237755e+00 4.280327e+00 4.213665e+00 3.625931e+00 3.594557e+00 2.905391e+00 8.244575e-02 1.465726e-01 2.175437e-01 2.726708e-01 4.232739e-01 4.149998e-01 4.188446e-01 4.698362e-01 4.268872e-01 4.797281e-01 3.893867e-01 4.369580e-01 3.404106e-01 7.544341e-03
<GCONST> 1.066372e+02
<MIXTURE> 6 8.000685e-02
<MEAN> 39
 7.105920e+00 -8.467650e-01 3.029906e+00 3.494855e+00 -3.051300e+00 2.106308e+00 -2.490379e+00 -8.927073e+00 -2.037314e+00 1.352064e+00 -4.359055e+00 -2.412227e+00 1.464711e+01 -3.928110e-01 8.128173e-01 2.746405e+00 2.290981e+00 -1.419365e+00 -2.669582e-01 2.512167e-01 -2.291098e+00 -1.457591e-01 2.388349e-01 -9.068283e-01 8.478731e-01 -4.153952e-01 9.451441e-02 -2.417914e-02 -6.116053e-01 -6.662132e-01 2.548318e-01 8.651982e-02 8.638829e-03 5.453587e-01 1.027726e-01 -3.268915e-01 2.245442e-01 -1.546005e-01 1.291921e-01
<VARIANCE> 39
 6.736673e+00 1.475113e+01 2.638236e+01 3.498917e+01 3.265577e+01 3.599234e+01 4.319840e+01 4.155504e+01 3.803649e+01 3.300944e+01 3.116853e+01 2.646315e+01 2.250463e+00 4.719133e-01 1.052630e+00 1.810521e+00 3.114293e+00 3.679005e+00 2.696836e+00 3.335494e+00 3.725869e+00 3.463068e+00 2.974454e+00 3.151970e+00 2.362116e+00 6.030675e-02 6.134269e-02 1.311375e-01 2.876730e-01 2.588795e-01 3.427944e-01 2.572547e-01 2.842086e-01 3.623528e-01 3.281773e-01 2.866910e-01 3.331526e-01 2.689467e-01 6.527908e-03
<GCONST> 9.777447e+01
<MIXTURE> 7 1.021033e-01
<MEAN> 39
 7.643836e+00 -1.124443e+00 -1.581896e+00 -4.110306e+00 -3.633664e+00 1.246847e+00 -1.723115e+00 -1.749503e+00 -5.536154e+00 -3.323869e+00 -3.057088e+00 -3.826333e+00 1.578182e+01 1.036677e-01 5.059450e-01 8.578942e-01 6.909494e-01 -6.300358e-01 -3.167261e-01 2.015829e-01 -3.316446e-01 7.861950e-02 2.448999e-01 -5.472791e-01 2.618865e-01 -2.202790e-01 -2.157033e-02 1.079625e-02 -3.926334e-02 -1.062378e-03 1.092851e-01 -5.139652e-02 -1.305170e-01 -4.810316e-02 1.349521e-01 3.345228e-02 6.112304e-02 -2.693430e-02 1.441984e-02
<VARIANCE> 39
 1.094866e+01 1.612637e+01 4.788600e+01 3.325153e+01 4.886625e+01 5.464438e+01 4.627219e+01 4.363644e+01 4.429589e+01 4.520485e+01 4.253643e+01 3.459288e+01 2.334273e+00 2.719962e-01 5.712797e-01 1.250770e+00 1.251355e+00 1.815069e+00 1.647152e+00 1.946583e+00 1.979512e+00 1.940646e+00 1.906274e+00 1.900481e+00 1.581282e+00 1.727680e-02 2.912567e-02 6.557304e-02 1.480193e-01 1.179580e-01 1.900143e-01 2.106203e-01 2.497225e-01 2.340256e-01 2.621785e-01 2.385211e-01 2.640423e-01 2.128141e-01 2.210836e-03
<GCONST> 8.671629e+01
<MIXTURE> 8 6.772089e-02
<MEAN> 39
 5.722641e+00 -1.626996e-01 -6.130368e-01 -7.475223e-02 -1.863366e+00 -9.965857e+00 -4.982644e-01 2.445574e+00 -7.683276e+00 -3.778560e+00 -4.681128e+00 -1.991667e+00 1.553461e+01 9.286881e-01 1.571036e+00 1.195045e+00 1.421257e+00 -1.054493e+00 9.621453e-01 1.475406e-01 -2.801906e+00 1.402833e-01 7.880257e-01 -5.413014e-01 1.058318e-01 -6.199862e-01 1.738722e-02 -1.766941e-01 1.834567e-01 -1.263690e-01 -3.080077e-01 8.803140e-01 -1.721413e-01 -7.272474e-01 4.649155e-01 -8.352885e-02 8.629568e-02 -9.437881e-02 4.611237e-02
<VARIANCE> 39
 7.390313e+00 1.304193e+01 2.442899e+01 2.657648e+01 4.012054e+01 2.833833e+01 4.399674e+01 3.527072e+01 4.855086e+01 4.965965e+01 3.677924e+01 3.650788e+01 2.113261e+00 7.992117e-01 1.488879e+00 3.600417e+00 2.512462e+00 4.552738e+00 4.468189e+00 4.644818e+00 4.994039e+00 4.703929e+00 3.948883e+00 3.565024e+00 3.167605e+00 7.245996e-02 8.033247e-02 1.341621e-01 2.572142e-01 2.337209e-01 4.167346e-01 3.180403e-01 4.959711e-01 4.578907e-01 4.559003e-01 4.738472e-01 4.334724e-01 3.900014e-01 6.806047e-03
<GCONST> 1.049525e+02
<MIXTURE> 9 7.750881e-02
<MEAN> 39
 3.432911e+00 9.567615e-01 2.519841e+00 -9.151326e+00 -4.065517e+00 -7.364572e-01 -6.187377e+00 -6.642637e+00 -8.169407e+00 -3.934177e+00 -6.497888e+00 -2.692405e+00 1.670476e+01 2.391293e-01 5.826799e-01 2.619259e-01 5.445204e-01 1.986747e-01 -2.653207e-01 -3.347785e-01 -2.826012e-01 2.177082e-02 -1.001519e-01 -1.348260e-01 1.454179e-01 -1.666190e-01 4.000091e-03 2.743350e-02 -5.665088e-02 2.062077e-01 -1.038490e-01 -7.094824e-02 1.424308e-01 1.132751e-01 1.505734e-01 -1.138402e-02 1.335051e-01 -4.426532e-02 -1.565794e-03
<VARIANCE> 39
 1.317837e+01 3.056579e+01 4.661876e+01 4.863871e+01 4.833451e+01 5.405067e+01 4.885799e+01 5.321474e+01 5.161907e+01 5.197200e+01 4.576271e+01 4.244946e+01 1.963709e+00 3.131498e-01 8.437402e-01 1.237409e+00 1.546720e+00 1.834851e+00 1.837293e+00 2.209774e+00 2.071412e+00 2.100673e+00 1.952739e+00 1.742271e+00 1.652375e+00 2.134934e-02 6.298163e-02 1.150922e-01 1.903411e-01 2.522699e-01 2.774651e-01 3.204415e-01 3.296889e-01 3.593695e-01 3.710235e-01 3.552138e-01 2.984037e-01 2.686259e-01 3.026213e-03
<GCONST> 9.508437e+01
<MIXTURE> 10 8.363949e-02
<MEAN> 39
 8.998411e+00 2.700344e+00 2.923005e-01 3.240381e+00 -4.621456e+00 -6.930927e+00 -2.764375e+00 -5.518104e+00 -6.246205e+00 -2.734835e+00 -4.839174e+00 -4.546560e+00 1.479191e+01 1.010128e+00 3.224824e-01 -1.130687e+00 1.613518e+00 6.229718e-01 -9.554936e-01 3.600611e-01 -6.046234e-01 1.071130e-02 3.396679e-01 -3.964584e-01 -2.560620e-01 -2.134104e-01 -4.941382e-01 5.734306e-02 6.976006e-01 -9.232948e-01 -3.819007e-01 8.122770e-01 -1.268251e-01 -8.655173e-02 3.057610e-02 8.978328e-02 9.634922e-02 7.657041e-02 1.121711e-01
<VARIANCE> 39
 7.132390e+00 1.966679e+01 2.185009e+01 3.657432e+01 3.179566e+01 3.158245e+01 4.965985e+01 4.951148e+01 4.337443e+01 3.838668e+01 4.880621e+01 3.502400e+01 2.390328e+00 4.495467e-01 1.063656e+00 1.548942e+00 1.907160e+00 2.166881e+00 2.991148e+00 3.273857e+00 2.903862e+00 2.872748e+00 2.943952e+00 2.665161e+00 2.409734e+00 2.843400e-02 7.807190e-02 1.656839e-01 2.099791e-01 2.532155e-01 3.512751e-01 3.510513e-01 5.801412e-01 4.551022e-01 4.630755e-01 4.010736e-01 3.780291e-01 3.045346e-01 6.526683e-03
<GCONST> 9.907365e+01
<MIXTURE> 11 6.552975e-02
<MEAN> 39
 7.223086e+00 -1.155929e+00 1.448050e+00 7.110115e-01 -1.624263e+00 -6.062434e+00 -9.060630e+00 -4.908600e+00 -3.725349e+00 -2.757927e+00 -7.104928e+00 -5.167626e+00 1.521917e+01 -3.318584e-02 1.048195e+00 3.008803e+00 1.756358e+00 -1.743331e+00 -7.030957e-01 -1.944708e-01 -1.288958e+00 3.798344e-01 -9.564236e-02 -9.332866e-01 3.125215e-01 -3.892910e-01 -9.637698e-03 -7.144918e-02 -5.393460e-01 -5.022038e-01 9.471238e-02 4.747496e-01 3.462635e-01 2.363110e-01 -9.812570e-02 -4.314269e-01 3.118704e-01 1.523668e-01 1.240750e-01
<VARIANCE> 39
 6.383076e+00 1.516389e+01 3.307654e+01 3.267759e+01 3.272034e+01 5.082748e+01 4.335471e+01 4.287294e+01 4.585321e+01 5.186718e+01 3.683429e+01 3.265425e+01 2.225486e+00 5.715894e-01 1.333273e+00 2.418838e+00 2.924125e+00 4.454154e+00 3.981709e+00 4.171461e+00 4.308930e+00 4.574796e+00 5.117231e+00 3.645494e+00 3.630871e+00 6.812952e-02 6.956564e-02 1.576948e-01 4.129185e-01 2.705436e-01 3.825169e-01 3.705687e-01 3.942191e-01 3.879399e-01 5.184377e-01 4.582429e-01 4.198970e-01 3.573258e-01 6.093892e-03
<GCONST> 1.053743e+02
<MIXTURE> 12 5.370198e-02
<MEAN> 39
 6.786602e+00 2.509942e+00 1.263712e+00 -4.663789e+00 -6.618442e+00 -4.150147e+00 -6.522946e+00 -7.799780e+00 -5.237568e+00 -5.713565e+00 -8.805883e+00 -4.397022e-02 1.526516e+01 2.040330e+00 2.257550e-02 -1.569381e+00 2.965683e+00 5.565507e-02 -1.178036e+00 -1.301110e-01 1.466381e-01 2.654653e-02 -9.687175e-01 2.807111e-01 -1.968200e-01 -4.601931e-01 -4.237757e-01 1.055230e-01 3.810484e-01 -4.874362e-01 -8.064435e-02 3.577796e-01 8.949741e-02 1.867379e-02 -5.248109e-02 2.732092e-01 2.150580e-01 -3.663824e-01 1.258912e-01
<VARIANCE> 39
 1.147591e+01 1.910795e+01 1.913349e+01 3.370382e+01 2.580147e+01 2.852343e+01 3.618019e+01 4.061851e+01 4.062776e+01 3.334559e+01 3.669307e+01 3.448638e+01 2.886596e+00 7.180312e-01 1.495373e+00 1.848487e+00 2.920820e+00 3.379363e+00 3.931028e+00 5.060750e+00 3.706537e+00 3.748096e+00 3.570371e+00 3.283758e+00 2.936883e+00 7.610843e-02 1.377345e-01 2.036113e-01 2.324468e-01 3.895928e-01 3.583360e-01 3.695658e-01 4.656036e-01 4.239120e-01 4.398522e-01 3.784231e-01 3.819935e-01 3.092803e-01 8.329485e-03
<GCONST> 1.040684e+02
<MIXTURE> 13 4.984735e-02
<MEAN> 39
 5.948044e+00 -1.480624e+00 2.875804e+00 -3.521364e+00 -6.793034e+00 2.071247e-01 -6.704395e+00 -7.321689e-01 -9.669048e+00 -3.260634e+00 -6.914173e-01 -7.070190e+00 1.631224e+01 3.271234e-01 7.666675e-01 4.841544e-01 8.420268e-01 -2.389109e-01 -1.336405e-01 2.215622e-01 -5.565513e-01 -2.836524e-01 2.026595e-01 -8.331400e-02 -1.653000e-02 -2.843679e-01 -1.653377e-01 3.040012e-01 -2.136848e-01 1.279644e-01 3.713343e-01 -2.589345e-01 3.906504e-01 -2.869385e-01 4.847840e-01 -5.535573e-02 -2.855589e-01 4.393681e-01 -2.149824e-02
<VARIANCE> 39
 1.520649e+01 2.008510e+01 5.321990e+01 4.348341e+01 5.339215e+01 4.593388e+01 5.670078e+01 4.748846e+01 5.113438e+01 5.604351e+01 4.484801e+01 4.048618e+01 2.443018e+00 6.075189e-01 1.374345e+00 1.862501e+00 2.161386e+00 2.458210e+00 3.095313e+00 3.044880e+00 3.504533e+00 2.895496e+00 2.840304e+00 2.616029e+00 2.380255e+00 5.324267e-02 1.635265e-01 2.108984e-01 4.129334e-01 4.370206e-01 5.507752e-01 4.443775e-01 6.093591e-01 5.401565e-01 5.288016e-01 5.482035e-01 5.152074e-01 3.966795e-01 1.113710e-02
<GCONST> 1.088974e+02
<MIXTURE> 14 5.964078e-02
<MEAN> 39
 7.821775e+00 1.625985e+00 3.106115e+00 2.122469e+00 -7.184981e+00 -1.812957e+00 5.644968e-01 -1.100630e+01 -6.476258e+00 1.372631e+00 -5.429058e+00 -4.081357e+00 1.503352e+01 8.119493e-01 6.938931e-01 3.306967e-01 6.679475e-01 -3.582636e-01 1.583451e+00 5.838896e-02 -3.272804e+00 6.277155e-01 1.140929e+00 -1.146249e+00 5.584280e-02 -2.772679e-01 -2.507660e-01 -1.982956e-01 3.502220e-02 -3.500309e-01 -4.085094e-02 -2.220619e-01 -2.235000e-01 9.673741e-01 1.702814e-01 -5.878423e-01 2.683922e-01 1.819343e-01 1.207515e-01
<VARIANCE> 39
 6.998644e+00 1.651040e+01 2.306392e+01 3.201429e+01 2.877325e+01 3.744563e+01 3.597234e+01 4.181589e+01 4.643805e+01 3.442791e+01 4.356527e+01 3.309924e+01 2.234916e+00 5.207520e-01 1.200410e+00 1.630187e+00 2.254380e+00 2.585452e+00 3.391657e+00 4.144832e+00 3.971204e+00 4.554806e+00 3.149759e+00 3.248990e+00 2.955488e+00 4.339802e-02 6.327808e-02 1.346056e-01 2.540650e-01 2.068905e-01 3.632371e-01 3.806862e-01 3.912550e-01 4.421468e-01 4.445471e-01 3.477268e-01 4.121569e-01 3.338866e-01 6.251026e-03
<GCONST> 1.000070e+02
<MIXTURE> 15 5.212460e-02
<MEAN> 39
 6.983569e+00 4.920748e-01 2.760356e+00 -2.463048e+00 -8.385607e+00 -5.247399e+00 -4.152308e+00 -5.720421e+00 -6.336697e+00 -9.649033e+00 -5.970913e+00 5.269769e-01 1.522430e+01 6.710896e-01 1.286263e+00 1.790725e+00 -8.926016e-02 -1.812341e+00 1.575650e+00 -3.191248e-02 -1.810274e+00 2.439699e-01 -3.339186e-01 -2.147280e-02 1.359891e-01 -2.776171e-01 -9.672908e-02 -2.291099e-01 -6.792144e-01 -8.409304e-02 7.093095e-01 4.728180e-02 -1.852908e-01 2.953998e-01 4.079418e-02 2.810901e-01 1.219973e-01 -4.109505e-01 1.076411e-01
<VARIANCE> 39
 8.034107e+00 1.373816e+01 2.453297e+01 2.504224e+01 2.867820e+01 4.599128e+01 3.712758e+01 3.884088e+01 4.660644e+01 3.541367e+01 4.588212e+01 3.578141e+01 2.573022e+00 6.835005e-01 1.118295e+00 1.861891e+00 2.202611e+00 2.994581e+00 4.237212e+00 4.312834e+00 3.944600e+00 4.334818e+00 4.571776e+00 4.045495e+00 3.501629e+00 4.495137e-02 7.755362e-02 1.397578e-01 2.923967e-01 2.583903e-01 3.769436e-01 4.926161e-01 4.287229e-01 4.793311e-01 5.282223e-01 4.707856e-01 5.107757e-01 3.842378e-01 5.907890e-03
<GCONST> 1.035450e+02
<MIXTURE> 16 5.396416e-02
<MEAN> 39
 4.758133e+00 -2.717406e+00 -6.395539e+00 -4.052403e+00 2.159321e+00 -1.187028e+01 -4.511992e+00 3.284878e-01 -9.552083e+00 -7.753564e+00 -4.809803e+00 -1.512634e+00 1.670861e+01 6.222481e-01 1.633962e+00 2.109488e+00 8.663496e-01 -2.035647e+00 -2.057222e-01 2.096642e-01 -1.338068e+00 6.835404e-02 4.821891e-01 -6.217120e-01 5.106424e-01 -5.388792e-01 9.976880e-02 3.174162e-02 4.272192e-01 6.562289e-02 -4.469882e-01 1.030007e+00 -2.262185e-01 -5.368518e-01 4.408033e-01 1.603760e-02 1.690865e-01 -2.014921e-01 -1.529256e-02
<VARIANCE> 39
 9.761297e+00 1.399790e+01 2.789511e+01 3.155132e+01 4.651065e+01 4.032670e+01 4.666175e+01 4.566938e+01 5.389415e+01 5.679096e+01 4.677217e+01 4.166611e+01 2.102145e+00 8.350500e-01 1.425213e+00 3.543356e+00 2.820503e+00 4.225456e+00 4.560526e+00 3.991007e+00 3.841557e+00 4.479090e+00 3.914625e+00 3.315268e+00 3.281271e+00 7.054995e-02 1.459259e-01 2.021249e-01 3.864267e-01 4.055251e-01 5.684810e-01 6.018820e-01 7.176569e-01 7.580448e-01 6.880957e-01 7.595829e-01 6.173716e-01 4.833339e-01 7.334237e-03
<GCONST> 1.118525e+02
~s "N3m"
<NUMMIXES> 16
<MIXTURE> 1 3.614902e-02
<MEAN> 39
 6.533639e+00 1.391773e+00 4.392245e+00 1.225874e+00 -6.415639e+00 -1.725965e+00 -2.953176e+00 -5.513648e-01 -7.738577e+00 -1.952024e+00 -6.553968e-01 -4.107742e+00 1.524358e+01 -6.375445e-01 2.212906e+00 -1.332401e-01 8.302023e-01 1.439244e+00 -1.022598e+00 1.376458e+00 -7.542230e-01 3.422167e-01 1.551412e-01 -7.453614e-01 1.044671e+00 -4.612164e-01 -9.124851e-01 3.370503e-01 -1.507676e-01 3.368902e-02 7.864600e-01 9.364417e-02 3.000169e-01 -8.609021e-02 5.473971e-01 -4.273847e-02 -9.714770e-02 2.243121e-01 5.074792e-02
<VARIANCE> 39
 1.635584e+01 1.762821e+01 4.082085e+01 4.115824e+01 4.372692e+01 4.452038e+01 4.393485e+01 4.767607e+01 3.906536e+01 4.037412e+01 3.249415e+01 3.825222e+01 2.874488e+00 8.290614e-01 1.432691e+00 1.908230e+00 2.135222e+00 2.887106e+00 2.683371e+00 2.765944e+00 3.007076e+00 3.012083e+00 2.726590e+00 2.514393e+00 2.095641e+00 1.070130e-01 2.226569e-01 2.889285e-01 3.729689e-01 4.356585e-01 5.008026e-01 5.524029e-01 5.247790e-01 5.256654e-01 4.541283e-01 4.668434e-01 4.100382e-01 4.919533e-01 3.542452e-02
<GCONST> 1.091827e+02
<MIXTURE> 2 5.288828e-02
<MEAN> 39
 9.174466e+00 3.752475e+00 2.949411e+00 5.992347e+00 -3.770538e+00 -1.980733e+00 2.430107e-01 -7.315918e+00 -4.761373e+00 1.035143e+00 -1.856081e+00 -3.166031e+00 1.354924e+01 1.082136e-01 5.574002e-01 -4.826793e-02 1.184729e-01 -6.253060e-03 1.305013e-01 1.071148e-01 -4.575562e-02 -2.753339e-01 -8.397099e-02 1.295677e-01 1.443095e-01 -1.148909e-01 -1.372417e-01 2.995835e-02 9.180789e-02 -2.277726e-01 6.679805e-02 6.376081e-02 -1.169852e-01 2.437616e-01 2.936068e-02 -1.876224e-01 -4.846389e-02 8.203463e-02 1.185060e-02
<VARIANCE> 39
 7.229278e+00 1.873898e+01 2.106494e+01 2.846575e+01 2.705508e+01 2.861976e+01 3.112450e+01 3.631034e+01 3.794664e+01 3.353830e+01 3.303422e+01 3.154590e+01 2.061318e+00 1.208228e-01 4.047621e-01 4.201458e-01 6.458067e-01 7.788345e-01 9.800529e-01 1.020464e+00 1.165117e+00 1.172072e+00 1.253355e+00 1.063547e+00 1.000804e+00 9.492856e-03 4.418306e-02 7.664023e-02 1.228769e-01 1.508307e-01 1.841428e-01 2.028881e-01 1.809434e-01 2.200530e-01 2.199079e-01 2.193639e-01 1.921214e-01 1.883724e-01 3.593391e-03
<GCONST> 7.468997e+01
<MIXTURE> 3 6.729556e-02
<MEAN> 39
 8.017271e+00 2.137691e+00 5.101779e+00 4.353702e+00 -5.486352e+00 -2.309311e-01 -2.141274e+00 -8.920259e+00 -3.023457e+00 -3.427897e-01 -3.151902e+00 -2.530798e+00 1.432384e+01 4.893279e-02 2.167250e-01 -5.804621e-03 3.236758e-02 -3.767711e-02 1.065465e-01 4.263467e-02 -5.803801e-02 -7.637463e-02 2.274095e-02 2.211935e-02 8.485537e-02 -4.706890e-02 -9.314369e-04 1.513993e-02 -4.684575e-02 -4.350689e-02 1.490550e-02 -2.682789e-02 8.032223e-03 6.659424e-02 -7.841787e-02 8.143559e-03 -2.317727e-02 -1.417999e-03 2.907906e-03
<VARIANCE> 39
 8.504575e+00 1.896323e+01 2.070314e+01 3.727129e+01 3.333363e+01 3.632286e+01 3.900310e+01 4.242982e+01 4.289715e+01 3.723775e+01 3.987368e+01 3.411184e+01 2.920476e+00 6.480663e-02 1.662487e-01 1.884735e-01 2.781179e-01 3.632703e-01 4.404095e-01 4.773670e-01 5.333006e-01 5.677914e-01 5.915727e-01 5.575390e-01 5.216935e-01 4.387818e-03 1.117582e-02 2.390528e-02 3.421929e-02 4.689460e-02 5.907309e-02 6.903490e-02 7.620604e-02 8.626454e-02 8.948319e-02 8.980818e-02 8.274158e-02 8.152372e-02 6.243659e-04
<GCONST> 5.275713e+01
<MIXTURE> 4 7.167760e-02
<MEAN> 39
 8.806169e+00 1.589711e+00 4.537318e+00 6.240593e+00 -8.213420e+00 1.211695e+00 -9.488419e-01 -1.120268e+01 -1.802913e+00 6.068295e-01 -4.553155e+00 -2.284502e+00 1.427136e+01 2.921065e-01 9.122177e-01 1.560559e-02 4.461988e-01 -7.356124e-02 1.328894e-01 2.028954e-01 -3.246471e-01 -3.067144e-01 5.757006e-02 -1.484699e-01 1.891112e-01 -2.234944e-01 -3.085700e-01 1.795520e-01 -1.436885e-01 -4.892209e-01 7.073947e-01 -2.875697e-01 -6.661285e-02 8.499117e-01 -2.706587e-01 -1.460946e-01 1.158100e-01 -4.712052e-02 3.565820e-03
<VARIANCE> 39
 6.541137e+00 1.740573e+01 2.181266e+01 3.484340e+01 2.689849e+01 3.199825e+01 4.149764e+01 3.754498e+01 3.870849e+01 3.275013e+01 3.385680e+01 3.341821e+01 2.103348e+00 2.622223e-01 7.216163e-01 8.384185e-01 1.051346e+00 1.487340e+00 1.510585e+00 1.552328e+00 2.010328e+00 2.014288e+00 1.729344e+00 1.614535e+00 1.443299e+00 2.346824e-02 1.241655e-01 1.882315e-01 3.607046e-01 3.541675e-01 3.589867e-01 3.717930e-01 4.132039e-01 4.413944e-01 3.974411e-01 3.626257e-01 3.693110e-01 3.473348e-01 1.364620e-02
<GCONST> 9.275818e+01
<MIXTURE> 5 9.109629e-02
<MEAN> 39
 9.180822e+00 3.192780e+00 2.354622e+00 6.479455e-01 -5.687471e+00 -4.524536e+00 -7.351889e+00 -6.547517e+00 -2.053123e+00 -5.967114e+00 -7.056720e+00 -3.159219e+00 1.485895e+01 4.036177e-01 4.275176e-01 1.321459e-01 2.897646e-01 -1.526202e-01 5.098138e-01 -3.423823e-01 -2.135203e-01 2.424723e-01 -6.437629e-02 1.955885e-01 8.723540e-02 -1.033870e-01 -2.607390e-01 1.409005e-02 6.535696e-04 -2.150783e-01 1.188601e-01 1.120734e-01 3.114232e-01 8.409330e-02 -3.871410e-01 1.843223e-01 1.788025e-01 -4.355403e-03 1.842653e-02
<VARIANCE> 39
 6.718694e+00 1.838742e+01 2.493439e+01 2.785872e+01 3.034349e+01 4.355341e+01 3.982988e+01 5.183844e+01 4.176934e+01 4.553492e+01 4.709733e+01 4.330863e+01 2.041873e+00 2.773584e-01 6.499907e-01 1.003431e+00 1.017834e+00 1.504763e+00 1.724429e+00 1.992879e+00 2.081547e+00 2.151011e+00 2.250873e+00 2.010448e+00 1.899361e+00 1.089614e-02 1.007218e-01 1.355231e-01 3.317384e-01 2.792008e-01 3.635139e-01 4.084140e-01 4.066543e-01 4.112034e-01 4.004927e-01 4.386488e-01 4.226897e-01 3.846631e-01 6.207998e-03
<GCONST> 9.381677e+01
<MIXTURE> 6 6.900491e-02
<MEAN> 39
 7.382293e+00 3.851828e-01 6.579999e+00 3.606197e+00 -6.412949e+00 7.434703e-01 -2.074423e+00 -8.958219e+00 -1.153593e+00 -2.927691e-01 -5.401420e+00 -1.355935e+00 1.449534e+01 8.605858e-02 3.609352e-01 2.301551e-01 1.428084e-01 -2.363398e-01 3.345352e-02 1.249745e-01 -2.324627e-01 -2.653746e-02 8.928260e-02 -9.271543e-02 5.731205e-02 -8.988182e-02 6.521856e-03 9.541886e-02 -4.317062e-01 -2.145583e-01 2.360847e-01 -8.866035e-02 3.561673e-02 3.461154e-01 -1.872008e-01 2.630671e-02 1.532164e-01 -1.674619e-01 1.878282e-02
<VARIANCE> 39
 7.009916e+00 1.717933e+01 2.056523e+01 3.531881e+01 3.291175e+01 3.420008e+01 4.081848e+01 4.018721e+01 3.784719e+01 3.439005e+01 2.974772e+01 2.737275e+01 2.323249e+00 1.428972e-01 3.191291e-01 4.772948e-01 5.004190e-01 6.162199e-01 6.388750e-01 7.208699e-01 7.769707e-01 8.107344e-01 8.358391e-01 7.802703e-01 7.072594e-01 1.000508e-02 5.591304e-02 9.398708e-02 1.911720e-01 2.018475e-01 2.041243e-01 2.071924e-01 2.230676e-01 2.620670e-01 2.294815e-01 2.214880e-01 2.118947e-01 1.722153e-01 5.011563e-03
<GCONST> 7.448981e+01
<MIXTURE> 7 7.756618e-02
<MEAN> 39
 8.011720e+00 2.294555e+00 3.133663e+00 -1.368754e+00 -5.853945e+00 -1.871982e+00 -6.742392e+00 -5.744799e+00 -3.885747e+00 -5.503719e+00 -4.376144e+00 -3.251960e+00 1.505309e+01 1.742323e-01 3.349177e-01 9.873658e-02 1.263579e-01 -1.610794e-01 2.643226e-01 3.911584e-02 -1.324934e-01 6.681418e-02 1.135171e-01 8.779366e-02 1.926332e-01 -6.390128e-02 -1.396510e-02 9.251202e-03 -8.153091e-02 4.033857e-02 2.280731e-02 -5.678073e-02 1.531439e-01 -5.063800e-02 -5.052850e-02 1.024496e-01 -8.151682e-02 7.253714e-02 -1.917932e-04
<VARIANCE> 39
 9.794048e+00 1.920657e+01 3.243220e+01 3.866092e+01 3.722229e+01 5.288873e+01 4.229690e+01 5.762558e+01 4.733778e+01 5.197326e+01 5.347235e+01 4.797793e+01 2.623009e+00 1.163207e-01 3.223208e-01 4.633056e-01 6.362692e-01 8.736483e-01 1.036962e+00 1.184302e+00 1.317169e+00 1.328938e+00 1.344576e+00 1.273076e+00 1.171350e+00 5.972162e-03 1.965266e-02 4.618666e-02 8.143976e-02 9.038834e-02 1.330561e-01 1.683384e-01 1.748524e-01 1.964936e-01 1.976746e-01 2.041780e-01 2.028296e-01 1.939697e-01 1.051101e-03
<GCONST> 7.536530e+01
<MIXTURE> 8 5.091981e-02
<MEAN> 39
 6.534458e+00 2.761089e+00 2.307236e+00 5.291368e-01 -4.082493e+00 -4.073387e+00 -4.561332e+00 -8.269952e+00 -3.286682e+00 -1.791526e+00 -6.799809e+00 -2.408509e+00 1.484812e+01 1.476201e-01 1.332285e+00 3.837671e-01 1.115458e+00 2.772634e-01 4.254335e-01 -7.527056e-02 -8.325103e-01 9.746389e-02 1.689767e-01 1.380304e-01 -1.099083e-01 -4.175057e-01 -4.630486e-01 -1.267909e-01 -6.820652e-02 -2.327383e-01 3.558435e-01 3.583287e-01 2.710049e-01 6.742924e-01 -1.769836e-01 -1.331622e-01 4.681275e-01 -1.450348e-02 3.543461e-02
<VARIANCE> 39
 1.577421e+01 2.677375e+01 3.987825e+01 6.851121e+01 5.574740e+01 6.394924e+01 6.653674e+01 7.564106e+01 5.410923e+01 5.125544e+01 4.383873e+01 3.952516e+01 3.294054e+00 1.342867e+00 2.076469e+00 3.744335e+00 4.140268e+00 4.733326e+00 4.453768e+00 4.439940e+00 4.975966e+00 3.992676e+00 3.716202e+00 3.409517e+00 2.883330e+00 1.192223e-01 3.856374e-01 3.994030e-01 7.888572e-01 9.752587e-01 1.110347e+00 9.886013e-01 1.047040e+00 1.126348e+00 8.745931e-01 7.954390e-01 6.269088e-01 5.690442e-01 3.270693e-02
<GCONST> 1.249935e+02
<MIXTURE> 9 7.216255e-02
<MEAN> 39
 8.225615e+00 3.035181e+00 3.341115e+00 3.216701e+00 -1.015732e+01 6.497316e-01 -5.045798e-01 -1.320852e+01 -2.705517e+00 -2.390733e+00 -5.975631e+00 -3.032863e+00 1.481179e+01 3.574137e-01 9.221007e-01 7.798176e-02 4.533038e-01 -2.391274e-01 4.456506e-01 -2.515478e-02 -2.832647e-01 -1.835934e-02 3.003444e-02 -2.357435e-01 -1.297726e-01 -2.055623e-01 -2.800419e-01 2.499320e-02 -5.711780e-02 -2.708165e-01 8.060868e-01 -3.750430e-01 -1.933691e-01 1.015494e+00 -2.684604e-01 -8.672210e-03 1.316165e-01 1.226236e-02 -1.917132e-02
<VARIANCE> 39
 6.999456e+00 1.560020e+01 2.110788e+01 3.747159e+01 2.859943e+01 4.289577e+01 5.691191e+01 4.312668e+01 4.767666e+01 4.733055e+01 4.688284e+01 3.529491e+01 2.201641e+00 2.416760e-01 5.836498e-01 6.464342e-01 9.435747e-01 1.438619e+00 1.476609e+00 1.642546e+00 2.217705e+00 1.858924e+00 1.801111e+00 1.690172e+00 1.477690e+00 2.344093e-02 1.263077e-01 1.854233e-01 3.135589e-01 4.019590e-01 4.026340e-01 4.938152e-01 5.789712e-01 5.160840e-01 5.023537e-01 5.150787e-01 5.127140e-01 3.957213e-01 1.440235e-02
<GCONST> 9.601118e+01
<MIXTURE> 10 7.463582e-02
<MEAN> 39
 8.464148e+00 3.251284e+00 9.931771e-01 -2.512277e+00 -7.017840e+00 -4.764630e+00 -5.317849e+00 -8.265203e+00 -6.691597e+00 -7.891707e+00 -8.026196e+00 -9.663017e-01 1.517718e+01 3.596317e-01 5.460414e-01 1.626650e-01 2.567979e-01 -2.904275e-01 2.681904e-01 -1.336504e-01 -1.063312e-01 2.384721e-01 -2.194186e-01 -2.142131e-01 -1.956671e-01 -8.944586e-02 -2.736010e-01 -4.146660e-02 6.135580e-02 -6.711776e-02 2.060290e-01 4.539650e-02 1.209649e-02 2.425357e-01 1.721502e-02 2.699501e-01 1.980896e-01 -2.001652e-01 1.577408e-02
<VARIANCE> 39
 8.354074e+00 1.587575e+01 2.520897e+01 2.777727e+01 3.238478e+01 4.248950e+01 4.017118e+01 5.222593e+01 4.447861e+01 4.315686e+01 4.419556e+01 4.132386e+01 2.389050e+00 2.450069e-01 5.574770e-01 7.882284e-01 1.004510e+00 1.316334e+00 1.501323e+00 1.649637e+00 1.792395e+00 1.825983e+00 1.982811e+00 1.853493e+00 1.651226e+00 1.030454e-02 1.242828e-01 1.583441e-01 3.679267e-01 3.565549e-01 4.115343e-01 4.553729e-01 4.354152e-01 4.436460e-01 4.513823e-01 4.465407e-01 4.410940e-01 3.781933e-01 8.336362e-03
<GCONST> 9.384612e+01
<MIXTURE> 11 6.544107e-02
<MEAN> 39
 7.856199e+00 1.905731e+00 3.643848e+00 2.781483e-01 -6.065885e+00 -3.334527e+00 -3.921932e+00 -6.876613e+00 -5.474893e+00 -3.036854e+00 -5.881386e+00 -3.225080e+00 1.514387e+01 4.290929e-02 1.065458e-01 3.517353e-02 1.915788e-02 -3.985738e-02 3.723041e-02 -5.362477e-02 -1.214979e-02 5.547088e-02 4.234952e-02 -4.430925e-03 -4.311074e-02 -2.466855e-02 -1.248666e-02 -7.590736e-04 -3.107378e-02 -2.099822e-02 1.459490e-02 9.219014e-03 -3.109857e-02 7.476853e-03 2.181580e-02 1.080762e-02 2.299479e-02 -3.199239e-03 2.256026e-03
<VARIANCE> 39
 1.045962e+01 1.771696e+01 2.858904e+01 4.550076e+01 3.510962e+01 5.535067e+01 5.004177e+01 5.497854e+01 4.624633e+01 5.633616e+01 4.819992e+01 4.025304e+01 3.149490e+00 5.035057e-02 1.211315e-01 1.628890e-01 2.379480e-01 3.059789e-01 3.545380e-01 4.019754e-01 4.599353e-01 4.652002e-01 4.772874e-01 4.596536e-01 4.169014e-01 3.305388e-03 1.141186e-02 2.363112e-02 3.717930e-02 4.897278e-02 6.471660e-02 7.626326e-02 8.280085e-02 9.309337e-02 9.212142e-02 9.806744e-02 9.257783e-02 8.368903e-02 4.248531e-04
<GCONST> 5.298207e+01
<MIXTURE> 12 6.184315e-02
<MEAN> 39
 7.068497e+00 2.032319e+00 5.261645e+00 1.255118e+00 -5.701967e+00 -4.195624e+00 1.116827e-01 -1.123800e+01 -4.198972e+00 1.645463e-01 -9.239247e+00 -1.265775e+00 1.504838e+01 1.335080e-01 3.533572e-01 7.824627e-02 1.655331e-01 -1.934508e-01 1.323612e-01 7.378707e-03 -2.394131e-01 1.225784e-01 7.565466e-02 -1.351361e-01 -2.823865e-02 -6.954671e-02 -1.449428e-02 2.024321e-02 -1.977354e-01 -5.245299e-02 4.982162e-02 1.243707e-01 -2.277379e-01 4.452078e-01 -7.898498e-02 -1.682416e-01 3.380489e-01 -1.891285e-01 -2.825432e-03
<VARIANCE> 39
 7.880194e+00 1.817744e+01 2.089486e+01 3.366650e+01 3.926004e+01 5.210888e+01 4.741278e+01 5.024118e+01 4.710815e+01 5.387843e+01 4.088095e+01 3.406581e+01 2.418828e+00 1.419199e-01 3.095468e-01 3.387370e-01 4.635524e-01 5.947616e-01 6.586294e-01 7.529362e-01 8.376021e-01 8.581438e-01 9.081509e-01 8.639202e-01 8.092390e-01 9.540838e-03 5.267957e-02 8.953801e-02 1.486429e-01 1.779432e-01 1.980509e-01 2.331914e-01 2.331814e-01 2.636195e-01 2.525904e-01 2.738084e-01 2.422398e-01 1.971910e-01 3.991369e-03
<GCONST> 7.683454e+01
<MIXTURE> 13 5.976323e-02
<MEAN> 39
 8.701283e+00 2.769156e+00 3.183460e+00 4.985960e+00 -4.942633e+00 -3.216265e+00 3.547209e-01 -6.915970e+00 -6.515124e+00 1.179590e+00 -3.156649e+00 -5.199728e+00 1.410545e+01 1.044717e-01 5.176081e-01 -1.309377e-02 2.126572e-01 -8.736425e-03 3.038907e-02 1.403433e-01 -1.078363e-01 -1.753418e-01 9.922887e-02 -2.321723e-02 -3.210583e-02 -1.250583e-01 -1.290098e-01 5.181764e-02 7.955011e-02 -2.117176e-01 9.141804e-02 1.194527e-01 -1.695127e-01 1.810659e-01 1.213252e-01 -2.283453e-01 2.308596e-03 1.700720e-01 2.432019e-03
<VARIANCE> 39
 7.883425e+00 1.752857e+01 2.497155e+01 3.262078e+01 3.198648e+01 3.411271e+01 3.844513e+01 4.119192e+01 4.008986e+01 3.815602e+01 4.248360e+01 2.892499e+01 2.502920e+00 1.968659e-01 4.887336e-01 5.203824e-01 7.682645e-01 8.994790e-01 1.055827e+00 1.049921e+00 1.190929e+00 1.133047e+00 1.203334e+00 1.108804e+00 1.024423e+00 1.739653e-02 4.343187e-02 7.648553e-02 1.126070e-01 1.530454e-01 1.683151e-01 1.902530e-01 1.851467e-01 1.923896e-01 1.984702e-01 2.000948e-01 1.888693e-01 1.643956e-01 3.781907e-03
<GCONST> 7.751479e+01
<MIXTURE> 14 5.211093e-02
<MEAN> 39
 7.814777e+00 2.724195e+00 1.746857e+00 -2.803190e+00 -4.924909e+00 -5.636056e+00 -5.714536e+00 -5.523973e+00 -6.767540e+00 -6.369124e+00 -7.705291e+00 -2.188776e+00 1.536873e+01 9.367429e-02 2.166715e-01 3.291712e-02 2.297575e-02 -7.268653e-02 -2.045213e-02 -7.011695e-02 -3.955054e-02 7.656064e-02 3.110841e-02 -1.160179e-01 -1.099558e-01 -3.599735e-02 -4.596857e-02 -1.133377e-02 5.522125e-03 2.106985e-02 -5.213998e-02 1.102784e-01 6.856603e-03 -7.228203e-02 1.039070e-01 1.158884e-01 4.460984e-02 -5.616662e-02 2.660480e-03
<VARIANCE> 39
 1.200363e+01 1.976734e+01 2.942963e+01 4.100239e+01 3.656437e+01 4.884412e+01 4.500184e+01 5.150975e+01 4.358491e+01 4.902789e+01 4.556181e+01 4.323533e+01 2.542808e+00 1.008270e-01 3.210951e-01 4.177350e-01 5.661455e-01 7.547339e-01 8.862230e-01 9.708539e-01 1.069454e+00 1.098464e+00 1.101895e+00 1.029085e+00 9.159985e-01 3.791246e-03 2.578970e-02 5.702562e-02 9.561286e-02 1.107973e-01 1.492262e-01 1.767892e-01 1.878865e-01 1.829120e-01 1.970750e-01 1.985299e-01 1.890061e-01 1.752047e-01 9.521791e-04
<GCONST> 7.330357e+01
<MIXTURE> 15 4.772883e-02
<MEAN> 39
 6.375881e+00 3.582545e+00 1.307691e+00 -4.554082e+00 -6.353891e+00 -3.140073e+00 -6.721941e+00 -1.091039e+01 -6.486550e+00 -4.294108e+00 -1.947382e+00 2.036732e+00 1.566036e+01 3.562854e-01 1.077683e+00 2.867310e-01 8.975148e-01 9.943654e-02 3.977205e-01 -3.537213e-01 -4.309832e-01 7.621882e-02 -2.712786e-01 -8.959892e-02 -5.342844e-01 -2.983984e-01 -4.816158e-01 -1.639724e-01 -3.006160e-02 2.352495e-01 4.071200e-01 -4.738347e-02 3.906987e-01 6.927247e-01 1.122312e-01 1.211079e-01 -9.064444e-02 -3.074307e-01 -3.015899e-04
<VARIANCE> 39
 1.816202e+01 2.086339e+01 3.347306e+01 4.370351e+01 3.776691e+01 5.745082e+01 5.010905e+01 6.250951e+01 7.208184e+01 7.265566e+01 9.644506e+01 8.832307e+01 2.351862e+00 9.892245e-01 1.316907e+00 1.834617e+00 2.997577e+00 2.834122e+00 3.820489e+00 4.244660e+00 4.194428e+00 4.023485e+00 3.702227e+00 4.140907e+00 3.447933e+00 5.782720e-02 2.835582e-01 2.917314e-01 4.948270e-01 6.019658e-01 6.655726e-01 8.044994e-01 7.510214e-01 7.909372e-01 9.341362e-01 8.973110e-01 9.180965e-01 7.603502e-01 2.491588e-02
<GCONST> 1.197664e+02
<MIXTURE> 16 4.968019e-02
<MEAN> 39
 8.649977e+00 1.924208e+00 2.218875e+00 3.181572e+00 -6.050672e+00 -5.208042e+00 4.222625e-01 -3.882633e+00 -1.070414e+01 9.239311e-01 -3.575372e+00 -5.214475e+00 1.465834e+01 1.867744e-01 1.290590e+00 -6.799681e-02 9.143887e-01 1.192264e-01 -1.601141e-01 3.473265e-01 -2.314325e-01 -1.344094e-02 -2.168574e-01 1.116043e-01 2.752893e-02 -3.538954e-01 -6.397517e-01 2.395236e-01 1.961349e-01 -3.113593e-01 4.749790e-01 4.707202e-01 -2.519782e-01 8.365768e-02 6.776387e-01 -3.322365e-01 8.389543e-02 2.611070e-01 -1.939222e-02
<VARIANCE> 39
 1.178215e+01 1.939508e+01 2.937347e+01 5.005950e+01 3.760447e+01 3.990201e+01 4.878077e+01 3.880858e+01 3.726678e+01 5.210413e+01 4.371377e+01 3.452908e+01 2.943902e+00 5.751398e-01 1.152498e+00 1.234618e+00 1.641974e+00 1.731685e+00 1.878657e+00 1.887837e+00 2.142060e+00 2.242058e+00 2.156936e+00 1.868476e+00 1.608607e+00 5.159164e-02 2.273177e-01 2.683999e-01 5.321482e-01 6.853352e-01 4.886531e-01 5.033728e-01 5.349512e-01 4.399948e-01 4.273416e-01 5.818738e-01 4.917071e-01 4.197278e-01 2.737843e-02
<GCONST> 1.045945e+02
~s "N4m"
<NUMMIXES> 16
<MIXTURE> 1 4.609146e-02
<MEAN> 39
 8.189656e+00 7.182576e+00 2.273615e+00 3.351176e-02 -4.973010e+00 -4.030933e+00 -3.698334e+00 -5.260795e+00 -6.459067e+00 -3.760281e+00 -5.230881e+00 -3.108693e+00 1.299607e+01 -1.935402e+00 8.360706e-01 9.877172e-01 2.539807e+00 2.409545e+00 7.843694e-01 1.207897e+00 1.217012e+00 1.210678e+00 1.104587e+00 1.436749e+00 1.602416e-01 -1.184267e+00 -8.571656e-01 -8.191110e-01 -2.256985e-01 3.700495e-01 6.353357e-01 5.841703e-01 4.873630e-01 4.475346e-01 6.897486e-01 3.933863e-01 5.476406e-01 4.396514e-01 -8.368984e-02
<VARIANCE> 39
 9.378690e+00 1.802650e+01 2.189852e+01 2.923749e+01 2.719044e+01 3.671329e+01 3.961567e+01 4.523759e+01 4.447947e+01 4.635610e+01 4.045822e+01 3.111151e+01 3.074461e+00 1.362254e+00 2.364160e+00 2.509572e+00 3.334391e+00 3.759418e+00 3.932143e+00 4.499301e+00 4.937050e+00 4.832105e+00 5.390163e+00 5.074784e+00 3.985795e+00 1.653515e-01 2.045630e-01 3.135729e-01 3.974411e-01 4.897259e-01 4.873390e-01 5.610239e-01 6.202670e-01 7.468075e-01 6.829394e-01 6.963255e-01 6.048031e-01 4.768710e-01 4.047170e-02
<GCONST> 1.154708e+02
<MIXTURE> 2 6.202350e-02
<MEAN> 39
 9.475024e+00 5.234234e+00 2.585497e+00 8.115698e+00 -6.795930e+00 -1.645512e+00 3.575628e+00 -8.335022e+00 -8.406547e+00 1.809987e+00 -2.055610e+00 -5.243125e+00 1.346717e+01 -6.738423e-01 1.817502e+00 6.981837e-01 -4.854437e-01 1.948941e+00 1.373743e-01 -3.779160e-01 1.167887e+00 -1.607128e-01 -3.000902e-01 -4.940823e-01 7.341174e-01 -5.880750e-01 -7.829437e-01 -2.813331e-01 1.431955e-01 -3.737913e-01 8.130494e-01 1.301345e-01 -3.481826e-01 5.357651e-01 5.973761e-01 -2.442657e-01 -4.651446e-02 4.124577e-01 -7.123994e-02
<VARIANCE> 39
 6.320996e+00 1.361074e+01 1.659737e+01 2.941091e+01 3.177571e+01 3.280573e+01 2.799979e+01 3.358255e+01 4.024667e+01 2.918327e+01 3.672018e+01 2.800399e+01 2.095074e+00 7.820615e-01 1.008308e+00 1.108257e+00 1.675800e+00 2.049204e+00 2.379702e+00 2.382118e+00 2.432761e+00 2.990739e+00 2.455899e+00 2.308076e+00 2.051290e+00 1.032880e-01 1.667947e-01 2.691367e-01 2.971776e-01 4.370970e-01 4.150828e-01 4.536304e-01 3.795313e-01 4.462297e-01 4.862823e-01 3.774021e-01 4.470566e-01 3.720343e-01 3.615368e-02
<GCONST> 1.004643e+02
<MIXTURE> 3 4.993021e-02
<MEAN> 39
 8.859046e+00 4.359754e+00 1.467057e-01 3.881468e+00 -1.111826e+00 -1.683775e+00 -2.099479e+00 -3.563458e+00 -2.555840e+00 -1.091542e+00 -1.913938e+00 -1.859261e+00 1.328116e+01 -1.216782e-01 6.487662e-01 -1.067816e-01 -4.202436e-01 4.776137e-01 3.765048e-01 5.403458e-02 1.979512e-01 -3.703463e-01 -7.021654e-02 3.774191e-01 2.627553e-01 -1.384934e-01 -3.562197e-01 -1.567374e-01 2.352639e-01 -3.306746e-01 -5.739709e-02 1.193199e-01 8.385582e-02 1.178558e-01 -2.573865e-02 -4.285183e-02 -2.343069e-02 4.549475e-02 7.449450e-02
<VARIANCE> 39
 1.134484e+01 2.204103e+01 3.038657e+01 3.857128e+01 2.765304e+01 3.247069e+01 4.175971e+01 3.814512e+01 3.697900e+01 3.615944e+01 3.091541e+01 2.649378e+01 3.105031e+00 6.143469e-01 9.517786e-01 1.733414e+00 1.840785e+00 1.742135e+00 2.221705e+00 2.003276e+00 2.202001e+00 2.023682e+00 2.056376e+00 1.835040e+00 1.529957e+00 6.085362e-02 1.619906e-01 1.818292e-01 2.798336e-01 2.904866e-01 3.472613e-01 3.364531e-01 3.866623e-01 3.640755e-01 3.766886e-01 3.617811e-01 2.951504e-01 2.723039e-01 1.113037e-02
<GCONST> 9.744389e+01
<MIXTURE> 4 5.587968e-02
<MEAN> 39
 2.517426e+00 7.543292e+00 6.555722e+00 8.468308e+00 2.649731e+00 -1.757402e+00 -3.592600e+00 -7.044019e+00 -6.978387e+00 -4.721028e+00 -4.729181e+00 -4.464339e+00 1.078358e+01 -2.761294e+00 -1.523879e+00 -6.216796e-01 1.536596e+00 2.213789e+00 1.835164e+00 2.199936e+00 2.423302e+00 2.139909e+00 1.594155e+00 2.181488e+00 1.107455e+00 -9.813713e-01 -7.154517e-02 -7.072156e-01 -7.399101e-01 -6.354192e-01 -4.747205e-01 2.325215e-01 4.067932e-01 5.925747e-01 8.638782e-01 5.723697e-01 4.711117e-01 5.762664e-01 1.852620e-01
<VARIANCE> 39
 9.766932e+00 1.194866e+01 1.373405e+01 2.215114e+01 2.475924e+01 2.607158e+01 2.302696e+01 2.634328e+01 2.634674e+01 2.543185e+01 2.562617e+01 2.336042e+01 3.897037e+00 1.131086e+00 1.420131e+00 1.779766e+00 2.782538e+00 2.726510e+00 2.767840e+00 2.925438e+00 3.479372e+00 3.632215e+00 3.560158e+00 3.382139e+00 2.692483e+00 2.331814e-01 2.005874e-01 2.676030e-01 2.838074e-01 3.945988e-01 4.807760e-01 4.824843e-01 4.720613e-01 5.053814e-01 5.023280e-01 5.367954e-01 4.948605e-01 4.344212e-01 5.208419e-02
<GCONST> 1.052115e+02
<MIXTURE> 5 6.456530e-02
<MEAN> 39
 9.860997e+00 5.760739e+00 3.410076e+00 1.667848e+00 -7.643947e+00 -5.994868e-01 -5.687543e+00 -8.764944e+00 -1.195920e+00 -4.848505e+00 -7.317216e+00 -9.679366e-01 1.393225e+01 -5.549543e-01 1.498544e+00 5.060623e-01 9.192116e-01 1.772229e+00 -2.552875e-01 4.978632e-01 8.562912e-01 -7.628372e-01 4.724917e-01 5.769584e-01 -3.390937e-01 -5.620604e-01 -8.229957e-01 -3.266095e-01 -2.810194e-02 2.053063e-01 8.862812e-01 -1.247330e-01 5.102348e-01 5.374249e-01 -1.790321e-01 2.707589e-01 4.471319e-01 -6.617184e-02 -1.002648e-01
<VARIANCE> 39
 5.807425e+00 1.536513e+01 1.818098e+01 2.437873e+01 2.571053e+01 3.795535e+01 3.879763e+01 4.347186e+01 3.412089e+01 3.458064e+01 3.821741e+01 3.395460e+01 2.349752e+00 6.867752e-01 1.049750e+00 1.306539e+00 2.006124e+00 2.247716e+00 2.409412e+00 2.546490e+00 3.207270e+00 2.683971e+00 2.665218e+00 2.730054e+00 2.240500e+00 7.384495e-02 1.493290e-01 2.551114e-01 2.926853e-01 3.489179e-01 3.784227e-01 4.894163e-01 4.895674e-01 5.535164e-01 4.633553e-01 4.439152e-01 4.809946e-01 4.214489e-01 3.309727e-02
<GCONST> 1.021439e+02
<MIXTURE> 6 6.999733e-02
<MEAN> 39
 8.578671e+00 1.067691e+00 1.500905e+00 -9.004070e-01 -6.195015e+00 1.975138e+00 -2.346200e+00 -5.316170e+00 -4.324654e+00 -4.926864e-01 -2.783050e+00 -3.878280e+00 1.496702e+01 1.152655e-01 1.193677e-01 -2.940633e-01 -5.198217e-01 5.745033e-02 4.081190e-01 1.468465e-01 1.120215e-01 -2.584305e-01 7.322121e-02 3.288116e-01 2.138613e-01 7.437806e-03 -9.701282e-02 -1.339870e-01 -2.461641e-01 -3.067146e-01 3.222608e-01 -1.348449e-01 -4.882714e-02 3.117248e-01 4.044975e-02 -1.360209e-01 1.133524e-01 7.458796e-02 7.006574e-02
<VARIANCE> 39
 1.385507e+01 1.897119e+01 4.580095e+01 5.107817e+01 4.536197e+01 4.361926e+01 5.783836e+01 5.756800e+01 4.364713e+01 4.161985e+01 4.501678e+01 3.516398e+01 2.969178e+00 1.731932e-01 3.639122e-01 7.548831e-01 9.746621e-01 1.013566e+00 1.160773e+00 1.273937e+00 1.392573e+00 1.283043e+00 1.376986e+00 1.277791e+00 1.132412e+00 1.489429e-02 5.365120e-02 7.602780e-02 1.963544e-01 2.373663e-01 3.156034e-01 3.732518e-01 3.902447e-01 3.938545e-01 3.483839e-01 3.061336e-01 3.319587e-01 2.653877e-01 3.578042e-03
<GCONST> 8.818408e+01
<MIXTURE> 7 5.329052e-02
<MEAN> 39
 2.642339e+00 2.455074e+00 2.056920e+00 3.881299e+00 4.625011e-01 -1.505149e+00 4.496101e-01 -3.598950e+00 -2.273916e+00 6.391553e-01 -2.255301e+00 -4.968208e-01 1.141189e+01 -1.714656e+00 -6.904942e-01 -6.205364e-01 8.430554e-01 1.259452e+00 1.285447e+00 1.276147e+00 1.654522e+00 1.659180e+00 9.020261e-01 1.384816e+00 8.590522e-01 -7.832267e-01 -8.211783e-02 -4.138742e-02 -8.317266e-02 -9.757616e-02 -6.115177e-02 1.281706e-01 -1.354430e-01 7.871024e-02 1.252458e-01 -1.498019e-01 1.093925e-01 3.468272e-02 1.463828e-01
<VARIANCE> 39
 1.368967e+01 2.196973e+01 2.536688e+01 2.781565e+01 2.983288e+01 4.072966e+01 4.433037e+01 5.440079e+01 4.201054e+01 3.803117e+01 4.651148e+01 3.699085e+01 3.857380e+00 1.526726e+00 2.335938e+00 2.063342e+00 2.438158e+00 2.878072e+00 3.179738e+00 3.693727e+00 3.950905e+00 3.679492e+00 3.796239e+00 3.870624e+00 3.053247e+00 2.522290e-01 3.003637e-01 4.600639e-01 4.359204e-01 4.939388e-01 5.519950e-01 6.984522e-01 7.342524e-01 8.397038e-01 7.148315e-01 6.595990e-01 7.560703e-01 6.547184e-01 6.486176e-02
<GCONST> 1.173785e+02
<MIXTURE> 8 6.794227e-02
<MEAN> 39
 4.242562e+00 6.871061e+00 3.754209e+00 -6.892394e-01 -5.319473e+00 -4.764896e+00 -1.757077e+00 -4.955443e+00 -7.434775e+00 -3.760617e+00 -3.630064e+00 -2.270047e+00 1.499600e+01 -2.759310e+00 2.276694e+00 -6.696916e-02 1.693891e+00 2.111532e+00 -2.389337e-01 8.615315e-01 -6.763022e-02 9.749591e-01 -2.231653e-01 3.324991e-01 2.178928e-01 3.360521e-02 -1.330784e+00 -2.514394e-01 -2.740144e-01 1.911627e-01 6.743624e-01 5.158405e-01 2.112500e-01 4.048457e-01 5.167216e-01 2.433471e-01 2.694623e-01 4.410193e-02 2.945943e-01
<VARIANCE> 39
 1.626812e+01 1.616110e+01 3.503616e+01 4.355073e+01 3.583210e+01 3.955796e+01 4.038443e+01 5.331149e+01 3.710518e+01 3.921130e+01 3.445930e+01 3.203116e+01 2.584678e+00 1.216728e+00 2.552486e+00 2.274477e+00 4.177799e+00 4.206933e+00 4.161521e+00 4.045992e+00 4.461928e+00 3.662003e+00 3.452603e+00 3.582666e+00 3.510809e+00 9.839798e-02 1.618420e-01 3.136867e-01 3.183406e-01 3.953465e-01 4.399569e-01 5.479453e-01 5.243317e-01 5.586238e-01 4.941084e-01 5.433994e-01 4.561490e-01 4.122856e-01 1.298637e-02
<GCONST> 1.116070e+02
<MIXTURE> 9 6.931874e-02
<MEAN> 39
 1.008845e+01 5.882318e+00 1.264092e+00 -1.203280e+00 -9.100568e+00 -1.782774e+00 -6.981745e+00 -8.957179e+00 -6.033662e+00 -7.990518e+00 -8.249594e+00 -2.337019e+00 1.459746e+01 -2.699148e-01 1.054074e+00 7.141030e-01 8.896744e-01 1.036832e+00 -2.574214e-01 1.591115e-01 4.231066e-01 -3.238082e-01 2.066441e-01 1.093457e-01 -6.863682e-01 -3.593600e-01 -8.739711e-01 -2.909487e-01 1.964947e-01 2.357416e-01 9.157041e-01 -2.369816e-01 5.008703e-01 3.946813e-01 1.144341e-01 4.893942e-01 4.418835e-01 -7.870479e-03 -5.157354e-02
<VARIANCE> 39
 6.563741e+00 1.214804e+01 1.963079e+01 2.635256e+01 2.500024e+01 3.390977e+01 3.706987e+01 3.944008e+01 3.547635e+01 3.547004e+01 4.017497e+01 3.377346e+01 2.522251e+00 6.220679e-01 7.848169e-01 1.197714e+00 1.625854e+00 2.237997e+00 1.964792e+00 2.139843e+00 2.435496e+00 2.342000e+00 2.457649e+00 2.260421e+00 2.180479e+00 3.784581e-02 1.926836e-01 2.248622e-01 3.595694e-01 4.632426e-01 4.532556e-01 5.541136e-01 5.517395e-01 5.380351e-01 5.273469e-01 5.269660e-01 5.509486e-01 4.547143e-01 3.419551e-02
<GCONST> 1.011949e+02
<MIXTURE> 10 7.459692e-02
<MEAN> 39
 6.868136e+00 5.249127e+00 4.679046e+00 3.917765e+00 -1.903169e+00 -1.991302e+00 -1.170756e+00 -4.072426e+00 -2.114385e+00 -1.780478e+00 -4.652412e+00 -1.110675e+00 1.230247e+01 -5.403005e-01 6.262293e-01 1.240443e-01 3.500724e-01 5.318354e-01 8.653221e-02 -3.039707e-02 1.848503e-01 -5.246223e-02 -1.568661e-01 1.704512e-01 -5.693914e-02 -2.969065e-01 -3.100448e-01 -1.618649e-01 -1.098582e-01 1.775682e-02 1.694948e-01 1.097410e-01 8.200163e-02 9.650541e-02 2.722935e-03 4.991928e-02 1.401865e-01 -2.597681e-02 1.294553e-02
<VARIANCE> 39
 1.166264e+01 2.233683e+01 2.137908e+01 3.294138e+01 2.482795e+01 2.863717e+01 3.386097e+01 3.246676e+01 3.013445e+01 3.547548e+01 3.341548e+01 2.506146e+01 3.477780e+00 6.138240e-01 1.106610e+00 1.145157e+00 1.196259e+00 1.501352e+00 1.432440e+00 1.523311e+00 1.564298e+00 1.498197e+00 1.632885e+00 1.429064e+00 1.302342e+00 7.000281e-02 1.481133e-01 2.211119e-01 1.913594e-01 2.482957e-01 2.467832e-01 2.484069e-01 2.661619e-01 2.661572e-01 2.531210e-01 2.756227e-01 2.650022e-01 2.224927e-01 1.354720e-02
<GCONST> 9.103612e+01
<MIXTURE> 11 6.467695e-02
<MEAN> 39
 8.348636e+00 5.622991e+00 5.434782e+00 6.661302e+00 -7.221721e+00 9.787968e-01 1.691117e+00 -1.224996e+01 -5.827121e+00 3.871166e+00 -7.429655e+00 -3.947966e+00 1.357069e+01 -1.005098e+00 1.469529e+00 -1.145988e-01 -2.125259e-02 2.848369e+00 -6.933202e-01 -4.334918e-02 1.701931e+00 -1.844569e-01 -5.610617e-01 7.449038e-02 5.963456e-01 -6.204905e-01 -7.588709e-01 -5.629743e-01 -3.694819e-01 -5.009213e-01 7.788101e-01 -2.357267e-01 -3.420209e-01 1.023683e+00 4.927564e-01 -4.904758e-01 5.568106e-01 3.174894e-01 7.157476e-02
<VARIANCE> 39
 6.343121e+00 1.498680e+01 1.817146e+01 3.520542e+01 2.898152e+01 3.612016e+01 4.208523e+01 4.556574e+01 4.658266e+01 3.261446e+01 4.178796e+01 3.000464e+01 2.254510e+00 1.316057e+00 1.989016e+00 2.038685e+00 2.800881e+00 3.397603e+00 3.372239e+00 3.854747e+00 4.220795e+00 4.112636e+00 3.660408e+00 3.231078e+00 2.855276e+00 2.690126e-01 2.198658e-01 3.493167e-01 4.110234e-01 5.817718e-01 5.762873e-01 5.864379e-01 6.329092e-01 7.524486e-01 6.543769e-01 5.058684e-01 5.911575e-01 4.607994e-01 5.846361e-02
<GCONST> 1.129618e+02
<MIXTURE> 12 6.502031e-02
<MEAN> 39
 7.287698e+00 4.149371e+00 1.389922e+00 5.170032e-01 -4.475125e+00 -3.903162e+00 -4.608754e+00 -5.024649e+00 -6.226368e+00 -5.091413e+00 -5.692726e+00 -2.239741e+00 1.477967e+01 -1.467219e+00 4.025277e-01 4.462907e-01 1.296412e-01 1.455400e+00 1.574986e-01 2.520596e-01 6.100275e-01 3.291563e-01 2.006110e-01 4.714554e-01 -2.839082e-01 -5.741644e-02 -6.775990e-01 -3.389361e-01 6.274235e-02 -4.068657e-01 1.404428e-01 2.078018e-01 1.897659e-01 1.214141e-01 2.796285e-01 3.124716e-01 3.302634e-01 6.457563e-02 1.888340e-01
<VARIANCE> 39
 2.085115e+01 2.984952e+01 3.660390e+01 4.993180e+01 4.475668e+01 5.032529e+01 4.965750e+01 6.322215e+01 5.058163e+01 5.165776e+01 4.929624e+01 4.016085e+01 3.154516e+00 2.763784e+00 2.678708e+00 4.722291e+00 4.714626e+00 5.726004e+00 4.672398e+00 5.249480e+00 5.557966e+00 4.896450e+00 4.401258e+00 4.303378e+00 3.483511e+00 1.198215e-01 5.181047e-01 4.484910e-01 6.539142e-01 6.811182e-01 7.285531e-01 8.077599e-01 7.566694e-01 9.246510e-01 7.360119e-01 7.500339e-01 6.339094e-01 5.248460e-01 3.161244e-02
<GCONST> 1.251176e+02
<MIXTURE> 13 6.861466e-02
<MEAN> 39
 8.046485e+00 3.168552e+00 3.715611e+00 -9.898426e-02 -7.002411e+00 -2.562458e+00 -4.449335e+00 -7.202416e+00 -4.821476e+00 -4.272186e+00 -5.470078e+00 -1.929907e+00 1.491672e+01 -2.935236e-02 1.090595e-01 -6.629575e-03 1.146954e-01 3.550690e-02 -1.359077e-01 -7.975747e-02 9.953503e-02 1.346091e-01 1.421478e-01 -1.363572e-01 2.205194e-02 -2.665243e-02 -3.084920e-01 -1.390309e-01 -1.514373e-01 -2.884443e-01 3.292789e-01 -1.798271e-01 -1.231381e-02 3.127451e-01 5.153120e-02 8.110089e-02 9.435203e-02 -6.273010e-02 6.967293e-02
<VARIANCE> 39
 1.416272e+01 2.033596e+01 2.787872e+01 5.877580e+01 3.462615e+01 5.502008e+01 5.077077e+01 5.157802e+01 5.084435e+01 4.861651e+01 4.709105e+01 4.265681e+01 3.078400e+00 9.825810e-02 2.772956e-01 3.241466e-01 4.309281e-01 5.940848e-01 6.801828e-01 9.028731e-01 9.056882e-01 9.447374e-01 9.791020e-01 8.910084e-01 8.345104e-01 4.045670e-03 9.205617e-02 1.410427e-01 2.763165e-01 3.016083e-01 3.535127e-01 4.066925e-01 3.903753e-01 4.222004e-01 3.699084e-01 3.435969e-01 3.219668e-01 3.012570e-01 2.884627e-03
<GCONST> 8.332844e+01
<MIXTURE> 14 6.518891e-02
<MEAN> 39
 6.000869e+00 1.030588e+01 6.468623e+00 6.299811e+00 1.192874e+00 -1.337947e+00 4.632999e-01 -5.128784e+00 -6.570175e+00 -2.992496e-01 -4.074360e+00 -1.849844e+00 1.152281e+01 -2.420949e+00 2.578865e-02 2.271606e-02 5.550444e-01 2.917721e+00 6.380826e-01 1.714147e-01 1.714582e+00 8.984330e-01 -5.852158e-01 3.489156e-01 6.932639e-01 -9.496495e-01 -5.631922e-01 -1.193390e+00 -6.919653e-01 -1.858298e-01 -3.235354e-01 2.074429e-01 1.611247e-01 2.013119e-01 6.723078e-01 1.694539e-01 2.922192e-01 1.688407e-01 9.885044e-02
<VARIANCE> 39
 7.251781e+00 9.203197e+00 1.312877e+01 2.228545e+01 2.396795e+01 2.385678e+01 2.578620e+01 3.084951e+01 3.275198e+01 3.066681e+01 2.941429e+01 2.241074e+01 2.734159e+00 1.099051e+00 1.959577e+00 2.086075e+00 3.448086e+00 2.689037e+00 3.240014e+00 3.790385e+00 3.789631e+00 4.216949e+00 3.673875e+00 3.822812e+00 3.184159e+00 2.339175e-01 1.769514e-01 2.108342e-01 2.527695e-01 3.871980e-01 4.384445e-01 3.951524e-01 4.456994e-01 4.978065e-01 5.207019e-01 4.960973e-01 4.553348e-01 3.816892e-01 4.522978e-02
<GCONST> 1.052792e+02
<MIXTURE> 15 5.297695e-02
<MEAN> 39
 1.210039e+00 4.885602e+00 4.040799e+00 7.504871e+00 5.115718e+00 1.815137e+00 1.736751e+00 -2.290821e+00 -3.755359e+00 -1.889328e+00 -4.177116e+00 -2.190068e+00 1.033962e+01 -1.598674e+00 -1.111419e+00 -1.130158e+00 -4.213297e-02 7.014478e-01 6.247987e-01 5.807794e-01 1.011463e+00 8.647002e-01 1.026813e-01 5.335478e-01 4.254369e-01 -5.144920e-01 8.225048e-02 -2.934463e-01 -2.901594e-01 -3.748744e-01 -5.736420e-01 -2.269489e-01 -1.226240e-01 -8.712707e-02 2.525027e-01 2.291829e-01 2.396276e-01 2.045159e-01 1.694036e-01
<VARIANCE> 39
 1.107197e+01 1.221725e+01 1.631045e+01 1.917859e+01 2.568222e+01 2.712150e+01 2.683625e+01 2.676416e+01 2.824748e+01 3.335917e+01 2.699821e+01 2.280887e+01 2.801781e+00 1.315126e+00 1.558709e+00 1.616708e+00 1.955112e+00 2.288316e+00 2.225608e+00 2.325730e+00 2.561056e+00 2.573179e+00 2.575171e+00 2.542248e+00 2.261992e+00 1.667823e-01 1.952837e-01 2.460224e-01 2.769692e-01 3.203964e-01 4.190331e-01 4.084891e-01 4.297686e-01 4.629958e-01 4.466735e-01 4.523256e-01 4.191132e-01 3.765053e-01 3.417659e-02
<GCONST> 1.012255e+02
<MIXTURE> 16 6.987464e-02
<MEAN> 39
 7.993297e+00 8.485980e+00 4.694860e+00 2.384024e+00 -2.556748e+00 -4.991928e+00 -7.032072e+00 -1.009345e+01 -8.064615e+00 -4.930036e+00 -6.543068e+00 -4.377787e+00 1.361573e+01 -1.613286e+00 1.807281e-01 8.812113e-01 1.771666e+00 2.365847e+00 6.584252e-01 1.198756e+00 9.650996e-01 -1.415133e-01 3.664164e-01 7.377490e-01 -2.614759e-01 -7.777581e-01 -6.799709e-01 -8.160920e-01 -3.738053e-01 4.363902e-02 1.803533e-01 4.926209e-01 6.768116e-01 7.359247e-01 7.314007e-01 3.829451e-01 4.580346e-01 4.124316e-01 -8.616056e-02
<VARIANCE> 39
 8.058209e+00 1.009169e+01 1.567649e+01 2.404928e+01 2.261827e+01 3.002547e+01 2.768654e+01 3.663979e+01 3.013608e+01 2.993584e+01 3.352396e+01 3.345303e+01 2.847018e+00 9.358664e-01 1.579007e+00 1.786560e+00 2.340032e+00 3.151626e+00 3.363425e+00 3.352454e+00 3.497673e+00 3.164067e+00 3.588495e+00 3.331378e+00 2.856046e+00 1.239693e-01 1.931317e-01 1.791962e-01 2.733616e-01 3.872504e-01 3.788810e-01 4.392239e-01 4.212632e-01 5.595993e-01 4.818237e-01 4.793387e-01 4.820800e-01 4.402132e-01 3.954729e-02
<GCONST> 1.044690e+02
~s "a2m"
<NUMMIXES> 16
<MIXTURE> 1 3.775642e-02
<MEAN> 39
 7.564110e+00 -1.002219e+01 -4.884324e+00 -8.588367e+00 2.407456e+00 1.335741e-01 -3.281013e+00 4.506258e+00 1.773970e+00 4.177815e+00 -5.098205e+00 -7.315283e+00 1.776551e+01 2.382011e-01 2.470406e-03 1.867549e-01 1.725693e-01 1.435078e-01 -5.942242e-01 -1.821557e-01 4.466760e-01 -1.919113e-01 3.621504e-01 -3.943557e-01 3.096571e-02 -3.413739e-02 -6.554042e-01 1.294785e+00 1.929203e-01 1.147994e+00 9.810812e-02 -2.045291e-01 4.268616e-01 -6.266637e-01 -4.868909e-02 -2.854607e-01 4.133821e-01 8.205708e-01 -4.104756e-01
<VARIANCE> 39
 9.105837e+00 2.062824e+01 1.881054e+01 2.882535e+01 3.538428e+01 5.093716e+01 3.370765e+01 3.743223e+01 3.588823e+01 3.475051e+01 3.994730e+01 2.841783e+01 2.496992e+00 9.907209e-01 2.293867e+00 2.156610e+00 2.903557e+00 3.543843e+00 4.912097e+00 3.656891e+00 3.641294e+00 2.923983e+00 2.888731e+00 3.431043e+00 2.603769e+00 1.754086e-01 3.864108e-01 4.063332e-01 4.645917e-01 5.382126e-01 8.243076e-01 7.653056e-01 7.077805e-01 6.939870e-01 7.623872e-01 6.452576e-01 6.794916e-01 5.894887e-01 4.292117e-02
<GCONST> 1.144262e+02
<MIXTURE> 2 7.589950e-02
<MEAN> 39
 6.457169e+00 -9.406622e+00 -6.842608e+00 -6.505665e+00 2.411932e+00 9.636121e-02 1.522067e-01 1.857771e+00 5.771079e+00 -6.419531e-01 -4.783923e+00 -8.279709e+00 1.788941e+01 1.044543e-01 -3.774338e-02 -2.976460e-01 -3.212113e-02 5.128723e-01 2.960674e-01 2.685105e-01 -3.276191e-01 -1.155917e-01 1.818100e-02 -8.093309e-02 -1.333379e-01 -5.170006e-02 4.765818e-03 5.693725e-01 3.768686e-01 3.970074e-01 -3.256069e-01 -3.144594e-01 -3.249546e-01 -9.420060e-02 -2.959363e-01 2.403147e-01 2.512783e-01 4.760204e-01 -1.670265e-01
<VARIANCE> 39
 7.793264e+00 1.361362e+01 1.765883e+01 2.362551e+01 3.103804e+01 4.584814e+01 3.409769e+01 3.478545e+01 2.934607e+01 3.223792e+01 3.016836e+01 2.397900e+01 2.242065e+00 2.618123e-01 6.607863e-01 8.384845e-01 1.070949e+00 1.453150e+00 2.259232e+00 1.789150e+00 1.900675e+00 1.333787e+00 1.605466e+00 1.611841e+00 1.292873e+00 2.575985e-02 6.639414e-02 1.238979e-01 1.521275e-01 1.873274e-01 2.576837e-01 2.846246e-01 2.924805e-01 3.286093e-01 2.743381e-01 2.600914e-01 2.502557e-01 2.358287e-01 9.040178e-03
<GCONST> 8.585580e+01
<MIXTURE> 3 7.236581e-02
<MEAN> 39
 5.578137e+00 -1.012288e+01 -7.537543e+00 1.987370e+00 2.567304e-01 2.858273e+00 2.594810e+00 2.884112e+00 -4.133565e+00 -6.569532e+00 -4.627019e+00 2.657412e+00 1.713326e+01 -7.361075e-03 -7.097944e-01 -5.189254e-01 8.137735e-01 1.003932e+00 6.937544e-01 -5.005446e-01 -5.664815e-01 -4.410113e-02 2.576884e-02 2.456050e-01 5.783199e-02 2.538036e-02 -1.182755e-01 5.387596e-01 3.787347e-01 -1.763619e-01 -1.782346e-01 -4.295833e-01 -8.120118e-02 -5.662717e-02 3.945370e-01 2.776790e-01 1.331860e-01 -2.278038e-01 -1.223878e-01
<VARIANCE> 39
 8.166654e+00 1.867399e+01 2.083677e+01 2.231305e+01 3.109557e+01 2.641955e+01 3.891320e+01 2.863679e+01 3.008930e+01 2.609457e+01 2.910976e+01 2.266896e+01 3.145668e+00 3.632123e-01 7.831411e-01 9.727157e-01 1.178479e+00 1.899308e+00 1.523334e+00 2.048382e+00 1.889312e+00 1.810216e+00 1.670611e+00 1.462145e+00 1.419483e+00 3.645093e-02 1.015890e-01 1.654864e-01 1.694753e-01 2.292300e-01 2.914606e-01 2.822120e-01 3.356134e-01 3.238725e-01 3.009592e-01 3.447736e-01 2.884589e-01 2.483489e-01 9.690387e-03
<GCONST> 8.910821e+01
<MIXTURE> 4 5.050794e-02
<MEAN> 39
 5.710957e+00 -6.797304e+00 -8.247773e+00 2.552312e-01 3.526158e-01 -1.216230e+00 3.382335e+00 3.497556e-01 -1.430727e+00 -5.110475e+00 -6.979448e+00 -4.086934e-01 1.658485e+01 8.787215e-01 -5.017396e-01 -4.347545e-01 -2.603111e-01 -8.380709e-01 -4.441512e-01 -1.577374e-01 -3.968572e-02 -3.433218e-01 -3.413467e-01 -4.530743e-01 -4.432365e-03 2.078133e-01 -7.676231e-01 4.828811e-01 7.048298e-01 2.672430e-01 3.289665e-01 6.163506e-02 -1.107217e-01 2.306942e-01 4.174725e-01 6.012921e-01 7.905582e-01 1.223466e-01 -1.997702e-01
<VARIANCE> 39
 1.125894e+01 2.012875e+01 2.913892e+01 2.832680e+01 4.834755e+01 4.446735e+01 4.145880e+01 3.732909e+01 4.759651e+01 4.844526e+01 3.034226e+01 2.754880e+01 2.755036e+00 1.652936e+00 3.276298e+00 2.785383e+00 2.697219e+00 5.280707e+00 4.240345e+00 3.729979e+00 3.458353e+00 3.141668e+00 3.085775e+00 2.773621e+00 2.520835e+00 1.621079e-01 3.260180e-01 4.251854e-01 5.170474e-01 5.756998e-01 8.098495e-01 7.155889e-01 7.752801e-01 7.614603e-01 8.840092e-01 7.682566e-01 5.912510e-01 5.043507e-01 4.075236e-02
<GCONST> 1.170302e+02
<MIXTURE> 5 7.315746e-02
<MEAN> 39
 6.752318e+00 -9.181050e+00 -8.614658e+00 -6.093565e+00 5.158433e+00 4.086394e+00 6.073239e-01 -1.294396e+00 2.218369e+00 -2.069508e+00 -3.933780e+00 -5.983322e+00 1.742592e+01 7.606073e-02 1.656921e-01 -1.013902e-01 6.873509e-02 1.695822e-01 1.594054e-01 -1.655974e-03 -1.386096e-01 -5.018249e-02 3.782886e-02 6.037238e-03 9.112138e-02 -1.273896e-01 1.293098e-02 1.814587e-01 9.437978e-02 7.362573e-02 -1.806281e-01 -1.787962e-01 -6.980671e-02 1.397888e-01 5.674585e-03 7.354989e-02 -6.179052e-03 5.494232e-02 -6.503634e-02
<VARIANCE> 39
 8.279769e+00 1.582907e+01 1.844584e+01 4.177872e+01 3.417507e+01 4.619782e+01 4.260943e+01 3.179155e+01 3.489604e+01 4.767341e+01 3.486510e+01 3.494020e+01 2.723350e+00 1.823079e-01 4.727756e-01 4.134078e-01 6.460886e-01 7.207936e-01 8.851705e-01 8.232970e-01 8.769011e-01 7.836566e-01 7.706465e-01 8.114086e-01 6.688282e-01 3.104506e-02 3.197442e-02 6.592987e-02 7.326753e-02 9.384289e-02 1.203003e-01 1.311894e-01 1.388860e-01 1.353997e-01 1.285537e-01 1.257722e-01 1.270139e-01 1.112650e-01 3.759373e-03
<GCONST> 7.093342e+01
<MIXTURE> 6 7.163655e-02
<MEAN> 39
 3.197377e+00 -1.106400e+01 -8.050083e+00 -1.864779e+00 1.488387e+00 -2.081428e+00 5.010465e-01 -7.819531e-01 -4.800991e+00 -1.203685e+01 -3.875828e+00 -3.623184e-01 1.814249e+01 -8.800982e-02 5.497955e-02 5.028604e-01 1.237312e-01 -4.285184e-01 9.601515e-02 5.615469e-01 2.625732e-01 -2.651402e-01 -9.191137e-03 4.843590e-01 1.890810e-01 -2.111745e-02 9.430039e-02 4.714119e-01 3.664758e-01 -2.177426e-01 -4.631761e-01 -1.344103e-01 6.840084e-02 2.279847e-01 8.989249e-02 3.884536e-01 -4.296973e-02 -6.781211e-02 -9.701126e-02
<VARIANCE> 39
 8.344107e+00 1.680416e+01 1.938677e+01 2.680766e+01 3.679694e+01 2.779013e+01 4.794588e+01 2.885930e+01 3.568116e+01 2.685926e+01 2.966062e+01 2.399316e+01 2.506038e+00 2.125920e-01 5.053398e-01 5.720258e-01 7.794192e-01 1.555196e+00 1.088065e+00 1.586777e+00 1.230294e+00 1.382793e+00 1.107555e+00 1.040949e+00 1.067367e+00 1.917192e-02 4.926938e-02 9.761643e-02 1.238556e-01 1.731828e-01 2.353055e-01 2.346147e-01 3.031700e-01 2.599107e-01 2.547756e-01 2.625292e-01 2.070228e-01 2.274884e-01 5.016312e-03
<GCONST> 8.044919e+01
<MIXTURE> 7 5.416015e-02
<MEAN> 39
 3.950321e+00 -1.154131e+01 -5.315173e+00 -6.889726e+00 -3.107291e-01 -4.755996e+00 4.675470e+00 1.480151e+00 -3.585022e+00 -9.159698e+00 -6.744448e+00 1.604903e+00 1.853950e+01 -3.496392e-02 -1.653218e+00 -4.293800e-01 -1.416482e-01 1.128412e+00 8.691390e-01 3.205334e-01 -3.763076e-01 -9.682555e-01 -9.189237e-01 -3.029269e-01 -1.867037e-02 3.234594e-01 -4.915101e-01 9.734607e-01 2.523729e-01 1.168630e+00 1.039111e-01 3.039692e-01 -3.310764e-01 -4.411373e-03 4.613718e-01 8.067377e-01 8.323451e-01 -1.287010e-01 -2.920968e-01
<VARIANCE> 39
 8.128984e+00 1.588619e+01 1.624813e+01 2.095256e+01 3.957662e+01 2.579130e+01 3.350385e+01 3.224920e+01 3.345394e+01 2.643772e+01 2.918595e+01 2.252047e+01 1.749440e+00 5.328244e-01 1.913619e+00 1.352401e+00 2.015198e+00 3.201414e+00 2.570186e+00 2.517008e+00 2.147690e+00 2.210268e+00 2.296783e+00 1.931193e+00 1.753123e+00 1.013504e-01 2.300809e-01 3.774090e-01 2.714660e-01 4.222518e-01 6.239040e-01 4.822524e-01 6.034384e-01 7.190198e-01 5.786754e-01 5.352459e-01 4.516507e-01 3.884082e-01 3.174242e-02
<GCONST> 1.024777e+02
<MIXTURE> 8 6.035263e-02
<MEAN> 39
 7.071785e+00 -9.079602e+00 -8.933794e+00 -3.841581e+00 6.835140e-01 -9.381910e-01 2.700253e+00 -2.139555e+00 9.314556e+00 -3.031707e+00 -1.135543e+00 -9.701673e+00 1.791436e+01 8.042970e-02 -6.613408e-01 -2.140750e-01 -1.576878e-02 8.579536e-02 7.061468e-02 4.659925e-01 2.417351e-02 3.721725e-01 -5.589348e-01 -1.295273e-01 -4.235343e-01 1.399292e-01 -4.488463e-01 8.265491e-01 6.365782e-01 4.096289e-01 1.709559e-01 -1.913324e-01 -4.601015e-01 3.677703e-01 -9.043119e-01 5.872320e-01 -1.452703e-01 9.362089e-01 -2.858074e-01
<VARIANCE> 39
 7.924734e+00 1.510455e+01 1.854378e+01 2.466318e+01 3.191818e+01 4.939323e+01 3.415114e+01 3.906409e+01 2.678584e+01 2.715182e+01 2.993067e+01 2.083100e+01 2.077774e+00 6.188321e-01 1.174001e+00 1.674997e+00 1.693750e+00 2.706063e+00 3.206298e+00 2.879789e+00 3.105344e+00 2.155955e+00 2.125359e+00 2.416662e+00 1.875564e+00 7.585417e-02 2.705473e-01 2.642668e-01 3.136775e-01 3.837245e-01 5.757818e-01 6.096223e-01 5.411167e-01 6.026797e-01 4.443783e-01 4.407712e-01 4.169464e-01 3.590173e-01 2.150810e-02
<GCONST> 1.021402e+02
<MIXTURE> 9 7.508678e-02
<MEAN> 39
 6.434608e+00 -9.658304e+00 -8.271547e+00 -8.492370e+00 4.035899e+00 3.530161e+00 5.809290e-01 -1.648945e+00 4.551693e+00 -1.980219e+00 -2.868478e+00 -8.806644e+00 1.813438e+01 -1.363450e-01 -2.461155e-01 -1.593360e-01 4.900697e-02 5.164636e-01 2.346467e-02 2.580461e-01 -1.132376e-01 5.340018e-02 -3.035543e-01 -2.616785e-01 -1.159444e-01 7.354604e-03 4.027711e-02 4.404329e-01 2.526090e-01 3.466364e-01 -3.368253e-01 -3.618487e-01 -2.624693e-01 1.881052e-01 -2.018738e-01 2.631617e-01 2.414568e-02 3.553925e-01 -1.404284e-01
<VARIANCE> 39
 8.994021e+00 1.540271e+01 1.605863e+01 3.055295e+01 3.674459e+01 5.145539e+01 4.366100e+01 3.673177e+01 3.694726e+01 4.390010e+01 4.024226e+01 2.893734e+01 2.269890e+00 3.185268e-01 7.013182e-01 7.204221e-01 1.351530e+00 1.396583e+00 2.104351e+00 1.840156e+00 1.905986e+00 1.524975e+00 1.584557e+00 1.677465e+00 1.331221e+00 3.592192e-02 5.766524e-02 1.107560e-01 1.574363e-01 1.861487e-01 2.716534e-01 2.920276e-01 2.994182e-01 3.223633e-01 2.661744e-01 2.737277e-01 2.675346e-01 2.387568e-01 7.265306e-03
<GCONST> 8.841634e+01
<MIXTURE> 10 8.174531e-02
<MEAN> 39
 3.046035e+00 -1.132449e+01 -6.110442e+00 -4.335587e+00 -9.852759e-01 -1.653579e+00 2.816061e+00 2.744782e+00 -6.486266e+00 -9.111172e+00 -5.999359e+00 3.878814e-01 1.847545e+01 -1.257316e-02 -5.264728e-01 -5.395762e-01 5.666154e-01 8.939393e-01 5.035309e-01 -2.716354e-01 -5.045273e-01 -2.230985e-01 -4.237879e-01 9.643102e-02 -2.390061e-02 3.741609e-02 8.782979e-02 7.090607e-01 3.840988e-01 7.038173e-02 -4.139202e-01 -4.148910e-01 -2.644523e-01 -1.572344e-01 4.412648e-01 4.035206e-01 2.038648e-01 -1.025776e-01 -1.625322e-01
<VARIANCE> 39
 7.946650e+00 1.645495e+01 1.807799e+01 1.993188e+01 3.691121e+01 2.279965e+01 3.603421e+01 3.018773e+01 3.529634e+01 2.557774e+01 2.842805e+01 2.221644e+01 2.393754e+00 2.678656e-01 6.432309e-01 8.764572e-01 9.745902e-01 1.831797e+00 1.510418e+00 1.866600e+00 1.491276e+00 1.754716e+00 1.508566e+00 1.399413e+00 1.365738e+00 2.199455e-02 6.585304e-02 1.547211e-01 1.491582e-01 2.134656e-01 2.797984e-01 2.756877e-01 3.235832e-01 3.299248e-01 2.908547e-01 2.930325e-01 2.818439e-01 2.334430e-01 8.524414e-03
<GCONST> 8.543959e+01
<MIXTURE> 11 7.792254e-02
<MEAN> 39
 5.116449e+00 -1.086893e+01 -9.321410e+00 1.141495e+00 4.582743e+00 3.159107e+00 -6.677615e-01 8.344065e-01 -1.669360e+00 -6.180369e+00 -4.829858e+00 6.785730e-01 1.739745e+01 3.020547e-02 -3.139356e-02 -1.407352e-01 1.173382e-01 3.680251e-01 1.545757e-01 -3.855230e-01 -2.049636e-01 2.737452e-01 1.357439e-02 1.280278e-01 -1.900534e-01 -1.045447e-01 9.914719e-03 1.864845e-01 1.229682e-01 -1.573461e-01 -1.893001e-01 -1.549979e-01 8.679354e-02 1.030033e-01 4.059947e-02 -5.323535e-02 -4.557203e-02 -2.850890e-02 -7.001382e-02
<VARIANCE> 39
 7.713926e+00 1.513986e+01 1.819330e+01 2.873120e+01 2.989039e+01 3.106442e+01 4.332082e+01 2.927557e+01 3.126540e+01 3.327320e+01 2.719201e+01 2.824562e+01 3.064927e+00 2.258642e-01 4.305272e-01 4.090256e-01 5.458637e-01 7.060462e-01 6.797934e-01 8.357379e-01 8.296167e-01 7.711898e-01 7.922996e-01 6.666709e-01 6.446655e-01 3.018451e-02 4.667488e-02 6.792258e-02 7.427695e-02 9.587203e-02 1.219584e-01 1.249723e-01 1.350312e-01 1.359437e-01 1.385503e-01 1.404594e-01 1.203317e-01 1.149187e-01 5.470751e-03
<GCONST> 6.931014e+01
<MIXTURE> 12 5.383545e-02
<MEAN> 39
 2.518985e+00 -1.254753e+01 -7.559968e+00 -1.966456e+00 4.686881e+00 -2.321228e+00 -3.509506e+00 4.017189e-01 -6.447373e+00 -1.117521e+01 -1.581982e+00 -5.136762e-01 1.874844e+01 -3.229252e-02 3.396038e-01 1.732541e-02 -1.589916e-01 -2.297561e-01 -5.847484e-01 -1.639546e-01 4.028641e-02 -4.223777e-01 -2.238866e-01 3.863533e-02 -3.259950e-01 -1.000201e-01 8.470675e-02 4.031387e-01 1.381922e-01 -2.640139e-01 -4.957404e-01 -1.778520e-01 2.729852e-01 4.997311e-02 -3.335580e-03 1.596495e-01 -2.112006e-01 -4.427774e-02 -7.937884e-02
<VARIANCE> 39
 9.190051e+00 1.625249e+01 1.741627e+01 2.364493e+01 3.661995e+01 3.518640e+01 5.021948e+01 3.032818e+01 3.798062e+01 2.979982e+01 3.149575e+01 3.053373e+01 2.197546e+00 2.613837e-01 6.216202e-01 7.070694e-01 9.926925e-01 1.780544e+00 1.362378e+00 2.242075e+00 1.503820e+00 1.612697e+00 1.351530e+00 1.270121e+00 1.294435e+00 2.093027e-02 4.114462e-02 9.794503e-02 1.150795e-01 1.809238e-01 2.271306e-01 2.536387e-01 2.722166e-01 2.668861e-01 2.613747e-01 2.553452e-01 2.105108e-01 2.257506e-01 3.863921e-03
<GCONST> 8.305012e+01
<MIXTURE> 13 5.953592e-02
<MEAN> 39
 5.071284e+00 -6.993519e+00 -8.823742e+00 -2.641335e+00 1.082969e+00 -3.135356e+00 2.799811e+00 1.779254e+00 1.178440e+00 -3.267864e+00 -9.833589e+00 -2.228621e+00 1.687619e+01 2.767210e-01 -1.193310e+00 -1.106932e+00 -3.088391e-01 7.249991e-01 9.006997e-01 5.215461e-01 -4.823663e-01 -5.023378e-01 -4.794545e-01 -3.117279e-01 -7.717455e-01 2.432540e-01 -5.067521e-01 3.503732e-01 5.694159e-01 4.046279e-01 1.358592e-01 8.374491e-02 -9.985913e-02 -3.100187e-02 7.396633e-02 2.788160e-01 9.728941e-01 2.482307e-01 -1.586341e-01
<VARIANCE> 39
 8.710176e+00 1.439890e+01 2.093030e+01 2.259320e+01 4.840719e+01 3.224850e+01 3.772314e+01 4.042816e+01 5.127097e+01 5.372145e+01 2.300372e+01 2.167875e+01 2.924630e+00 7.411453e-01 1.195749e+00 1.697737e+00 1.805172e+00 3.541682e+00 2.993612e+00 3.033786e+00 2.833114e+00 2.559927e+00 2.679365e+00 2.366925e+00 2.026932e+00 1.019347e-01 2.288602e-01 2.727884e-01 3.277967e-01 3.818400e-01 6.719151e-01 4.434566e-01 5.676578e-01 7.563929e-01 7.440300e-01 6.297931e-01 3.893616e-01 3.442444e-01 1.821691e-02
<GCONST> 1.055973e+02
<MIXTURE> 14 4.270661e-02
<MEAN> 39
 6.404622e+00 -8.866911e+00 -8.073358e+00 -6.131292e+00 2.367333e-01 -4.042616e-01 -8.477313e-01 9.078929e-01 5.472791e+00 -8.799446e-01 5.763213e-02 -1.195772e+01 1.813352e+01 5.098944e-01 -1.809937e+00 -6.375581e-01 -9.978505e-01 -1.964785e-01 9.794205e-01 7.165990e-01 -6.857505e-02 7.252561e-01 -1.197707e+00 4.210958e-01 -1.537773e+00 5.351132e-01 -7.042421e-01 5.678463e-01 2.676232e-01 6.452080e-01 5.345007e-01 -1.384661e-01 3.894863e-02 5.205784e-02 -4.277421e-01 3.190549e-01 -3.491336e-01 1.202465e+00 -2.726721e-01
<VARIANCE> 39
 8.845136e+00 1.382940e+01 1.814550e+01 2.542611e+01 3.378170e+01 5.668112e+01 3.378286e+01 3.639389e+01 3.561660e+01 2.954741e+01 3.669658e+01 2.300550e+01 2.077044e+00 8.904671e-01 1.368349e+00 1.579105e+00 1.998029e+00 3.264532e+00 3.611692e+00 3.216889e+00 3.059972e+00 2.835117e+00 2.434686e+00 2.561907e+00 2.328166e+00 1.357709e-01 2.949542e-01 2.873828e-01 4.725699e-01 4.140651e-01 7.049469e-01 7.380562e-01 5.850936e-01 6.355587e-01 6.074493e-01 5.145729e-01 5.876135e-01 4.649228e-01 2.578267e-02
<GCONST> 1.076793e+02
<MIXTURE> 15 4.634079e-02
<MEAN> 39
 1.716996e+00 -1.102010e+01 -7.622205e+00 -4.151017e+00 -6.143134e-01 -2.816664e+00 1.888552e+00 -5.717413e-01 -5.737347e+00 -1.233653e+01 -2.333533e+00 -5.482209e-01 1.888644e+01 -3.775066e-01 -1.062962e+00 -6.255219e-01 3.537064e-01 7.711942e-01 4.934054e-01 1.954197e-01 -7.081677e-01 -7.587665e-01 -1.044018e+00 1.814349e-01 3.219007e-02 2.383951e-01 1.997880e-02 8.593739e-01 6.138663e-01 5.112413e-01 -1.247470e-01 -1.401299e-01 -2.248068e-01 3.277451e-02 4.381364e-01 9.972281e-01 1.111834e-01 6.459164e-03 -2.604614e-01
<VARIANCE> 39
 9.072241e+00 1.830127e+01 2.261019e+01 3.102291e+01 5.132646e+01 3.458654e+01 5.099586e+01 3.670434e+01 4.520730e+01 3.071498e+01 3.130109e+01 3.231043e+01 2.335826e+00 7.017488e-01 1.420638e+00 1.871822e+00 2.479918e+00 3.790681e+00 2.938960e+00 3.753995e+00 2.901898e+00 3.161500e+00 2.847527e+00 2.338597e+00 2.414539e+00 8.176826e-02 2.190225e-01 3.042390e-01 3.002291e-01 5.036552e-01 7.581183e-01 5.568739e-01 7.863303e-01 8.095196e-01 6.812673e-01 6.292329e-01 4.752748e-01 4.900041e-01 2.220211e-02
<GCONST> 1.090943e+02
<MIXTURE> 16 6.689130e-02
<MEAN> 39
 6.437025e+00 -1.122600e+01 -5.651943e+00 -8.562955e+00 1.872272e+00 3.926414e+00 -6.023474e+00 5.873208e+00 2.556662e-01 2.839934e+00 -6.069838e+00 -7.542090e+00 1.849223e+01 -1.042731e-01 -6.842943e-01 4.471722e-02 -4.499896e-02 2.739661e-01 4.699435e-02 2.209328e-01 5.962749e-01 -1.021063e-01 -2.793963e-01 -5.692300e-01 -1.494455e-02 1.277792e-01 -2.246789e-01 9.449149e-01 2.375242e-01 8.084375e-01 -6.917026e-02 -6.922040e-01 4.318084e-01 -6.378015e-01 8.858091e-02 -1.678624e-01 3.224476e-01 6.110207e-01 -2.804089e-01
<VARIANCE> 39
 8.699670e+00 1.444621e+01 1.622129e+01 2.556233e+01 3.125699e+01 4.163354e+01 2.719295e+01 2.965566e+01 2.999339e+01 3.549284e+01 3.814624e+01 3.098879e+01 2.012564e+00 4.646894e-01 1.324377e+00 1.198415e+00 1.942707e+00 2.254702e+00 3.457898e+00 2.445745e+00 2.361572e+00 2.059865e+00 2.117084e+00 2.248834e+00 1.802272e+00 8.681293e-02 1.761909e-01 1.892532e-01 2.988277e-01 2.955804e-01 4.882056e-01 3.967050e-01 3.755586e-01 4.453473e-01 4.362855e-01 3.954252e-01 4.368967e-01 4.316695e-01 1.411509e-02
<GCONST> 9.879874e+01
~s "a3m"
<NUMMIXES> 16
<MIXTURE> 1 4.944018e-02
<MEAN> 39
 5.197989e+00 -4.459372e+00 -7.259201e+00 -3.541841e+00 -1.731433e+00 -7.798079e+00 1.823031e-01 -1.317099e+00 -6.417465e-01 -7.847720e+00 -8.906718e+00 8.576624e-01 1.690980e+01 1.210551e-01 3.396004e+00 1.726047e+00 2.235323e+00 4.984836e-01 -4.118948e-01 -7.864321e-01 2.090368e-01 1.153657e+00 1.477561e+00 8.325150e-01 3.171217e-01 -1.227916e+00 -6.331674e-01 2.845445e-01 6.691628e-01 9.599433e-01 6.435704e-01 1.186613e+00 3.817332e-01 4.766670e-01 1.715338e-01 7.832927e-01 1.056059e+00 -1.411097e-01 -4.207655e-01
<VARIANCE> 39
 8.129756e+00 1.476582e+01 2.368542e+01 2.765627e+01 4.636705e+01 3.421362e+01 4.337263e+01 3.627805e+01 4.636230e+01 5.126579e+01 4.180684e+01 2.924643e+01 2.331153e+00 1.203241e+00 2.085217e+00 2.206979e+00 2.858573e+00 3.950171e+00 3.194843e+00 3.689924e+00 3.780063e+00 3.684088e+00 3.715880e+00 2.938032e+00 2.608069e+00 3.257606e-01 2.515409e-01 3.700287e-01 4.245935e-01 5.463499e-01 7.833394e-01 5.790815e-01 7.998713e-01 7.653724e-01 8.311371e-01 9.031305e-01 7.342271e-01 5.770619e-01 4.371642e-02
<GCONST> 1.154803e+02
<MIXTURE> 2 2.811853e-02
<MEAN> 39
 5.992244e+00 -1.019933e+01 -2.530105e+00 -1.710587e+00 -4.784772e+00 -5.942969e+00 -1.751220e+00 9.501468e+00 6.008573e+00 -3.397670e+00 -4.374789e+00 -4.835556e+00 1.786646e+01 -5.176451e-01 1.010050e+00 2.571386e+00 7.382328e-01 -2.382947e+00 -1.771873e+00 -2.269413e-01 7.755861e-01 -1.195063e+00 -4.858014e-01 1.255865e+00 2.164876e+00 -1.618533e-01 -1.404923e-01 6.663973e-01 4.926051e-01 -9.947463e-02 8.666891e-03 3.506419e-01 -1.955265e-02 -1.043861e+00 -6.721026e-01 2.888624e-01 5.573574e-01 1.574168e-01 -1.053286e-01
<VARIANCE> 39
 7.707579e+00 1.568287e+01 1.751950e+01 1.789452e+01 2.543454e+01 3.154646e+01 3.684015e+01 2.619171e+01 2.852195e+01 2.630225e+01 2.605449e+01 2.134369e+01 2.614377e+00 3.670886e-01 8.417780e-01 1.156466e+00 1.344036e+00 1.922622e+00 2.104360e+00 2.523066e+00 2.378690e+00 2.003180e+00 1.857071e+00 2.184348e+00 1.853242e+00 4.281069e-02 8.275331e-02 1.668834e-01 1.977381e-01 2.356362e-01 3.037430e-01 3.474671e-01 3.582950e-01 3.402444e-01 3.380713e-01 3.098964e-01 3.449520e-01 2.679780e-01 1.094252e-02
<GCONST> 9.084501e+01
<MIXTURE> 3 6.770927e-02
<MEAN> 39
 4.887301e+00 -6.954772e+00 -5.741307e+00 -1.393271e+00 -4.070189e+00 -1.761880e+00 4.452923e+00 3.422557e+00 -3.445730e+00 -8.728699e+00 -5.762123e+00 5.415276e-01 1.682933e+01 1.811347e-01 1.233618e+00 1.314199e+00 -5.881945e-02 -1.351155e+00 -8.067819e-01 -2.090319e-01 1.940186e-01 2.989654e-01 5.712897e-01 4.892536e-01 9.716194e-02 -2.930694e-01 -9.722024e-03 6.544877e-01 6.283258e-01 2.904380e-01 1.793058e-01 -1.936881e-01 -5.129576e-01 -3.213944e-01 3.085870e-01 5.194959e-01 2.647511e-01 -3.979145e-02 -2.066747e-01
<VARIANCE> 39
 6.592689e+00 1.350268e+01 2.023577e+01 2.498840e+01 3.277795e+01 2.742212e+01 3.115440e+01 2.708980e+01 3.418797e+01 2.784129e+01 2.333986e+01 2.105045e+01 2.577964e+00 3.963819e-01 1.000686e+00 1.329454e+00 1.241072e+00 2.439229e+00 1.992415e+00 2.337578e+00 2.166278e+00 2.222100e+00 2.118062e+00 1.969893e+00 1.612280e+00 3.961802e-02 1.377604e-01 2.022388e-01 2.226167e-01 3.235620e-01 4.322990e-01 3.788875e-01 3.953982e-01 4.317477e-01 3.892583e-01 3.725769e-01 3.037851e-01 2.988088e-01 1.633267e-02
<GCONST> 9.395600e+01
<MIXTURE> 4 7.679242e-02
<MEAN> 39
 7.230253e+00 -7.929907e+00 -7.418748e+00 -5.160958e+00 3.722795e-01 3.085571e-01 -1.857837e+00 4.611148e-01 6.855550e+00 3.317459e-02 -8.687496e-01 -1.041672e+01 1.769079e+01 1.519502e-01 1.614986e+00 7.803639e-01 1.232045e+00 8.303641e-02 -9.792216e-01 -7.691075e-01 -2.152243e-01 -9.149579e-01 1.112138e+00 -1.616053e-01 1.082204e+00 -5.701599e-01 -3.060436e-01 8.888418e-01 5.866265e-01 6.775825e-01 2.658871e-01 -1.077372e-01 7.884419e-02 -2.011154e-01 -6.648856e-01 2.258527e-01 -1.437973e-01 8.787597e-01 -3.496259e-01
<VARIANCE> 39
 8.097252e+00 1.379207e+01 1.761320e+01 2.476525e+01 2.825113e+01 4.739833e+01 3.738394e+01 4.029806e+01 3.226342e+01 2.850315e+01 3.633694e+01 2.236139e+01 2.039258e+00 6.137929e-01 1.334853e+00 1.520764e+00 2.205902e+00 2.894398e+00 3.704786e+00 2.990705e+00 3.621516e+00 3.008444e+00 2.523067e+00 3.376850e+00 2.415564e+00 1.010732e-01 2.502059e-01 2.725793e-01 2.992896e-01 3.869073e-01 5.642018e-01 5.993245e-01 5.599563e-01 7.126598e-01 4.921188e-01 4.731630e-01 4.995984e-01 3.961542e-01 3.606524e-02
<GCONST> 1.055808e+02
<MIXTURE> 5 8.834931e-02
<MEAN> 39
 5.565308e+00 -1.087057e+01 -9.239700e+00 1.452999e+00 6.083280e+00 4.145748e+00 6.562696e-01 -6.987513e-01 5.260784e-01 -4.964741e+00 -4.664722e+00 8.219351e-01 1.620640e+01 -3.345654e-01 7.000903e-01 1.597106e-01 4.907520e-01 4.608215e-01 2.707037e-01 -5.901551e-03 1.477849e-01 4.342855e-01 -1.539928e-01 -1.377692e-02 1.778851e-01 -6.378334e-01 -3.548721e-01 4.371940e-01 2.282591e-01 1.665690e-01 1.216409e-02 6.464084e-02 2.436925e-01 3.201358e-01 1.302692e-01 1.348184e-01 1.772576e-01 5.260179e-02 -2.306556e-01
<VARIANCE> 39
 1.150952e+01 2.389372e+01 2.217429e+01 3.992358e+01 2.903380e+01 3.170665e+01 3.751396e+01 3.000673e+01 2.880635e+01 3.744587e+01 3.085953e+01 3.273717e+01 3.471368e+00 9.447899e-01 1.285939e+00 1.129463e+00 1.301854e+00 1.330859e+00 1.402993e+00 1.709501e+00 1.675248e+00 1.451265e+00 1.477158e+00 1.284122e+00 1.306950e+00 1.373799e-01 2.109831e-01 2.958956e-01 2.617394e-01 2.835389e-01 2.753212e-01 2.767439e-01 3.177032e-01 3.185518e-01 2.940601e-01 3.111352e-01 2.778186e-01 2.399036e-01 2.956063e-02
<GCONST> 9.576842e+01
<MIXTURE> 6 6.115078e-02
<MEAN> 39
 4.707931e+00 -8.078921e+00 -6.166049e+00 -4.098476e+00 -2.880123e+00 -5.472483e+00 2.494228e+00 1.613523e+00 -1.568282e+00 -7.216378e+00 -7.792735e+00 -7.787538e-02 1.770654e+01 3.533821e-01 2.230183e+00 1.184017e+00 1.032393e+00 -7.226241e-01 -1.446488e+00 -7.411613e-01 -9.458715e-02 7.255609e-01 5.788627e-01 2.756903e-01 7.437919e-01 -6.264789e-01 -2.196425e-01 1.015571e+00 6.266600e-01 9.108711e-01 5.354972e-01 4.438538e-01 -2.370268e-01 -1.230370e-01 1.908891e-01 5.325082e-01 6.385351e-01 -8.316032e-02 -4.139486e-01
<VARIANCE> 39
 8.107448e+00 1.699757e+01 2.226895e+01 2.426034e+01 3.905885e+01 2.999823e+01 3.428794e+01 3.848191e+01 5.567516e+01 4.729229e+01 2.884660e+01 2.622407e+01 2.197454e+00 5.430286e-01 1.520564e+00 1.683794e+00 1.639950e+00 3.076755e+00 2.441962e+00 3.033798e+00 2.885706e+00 3.007764e+00 2.621006e+00 2.441504e+00 2.252436e+00 1.085022e-01 2.194764e-01 3.202003e-01 3.318325e-01 4.305052e-01 5.651845e-01 5.273504e-01 5.972358e-01 7.834136e-01 8.142793e-01 6.966347e-01 4.601453e-01 4.341176e-01 3.876239e-02
<GCONST> 1.069978e+02
<MIXTURE> 7 5.617051e-02
<MEAN> 39
 2.951592e+00 -7.519493e+00 -1.811173e+00 -5.500280e+00 -7.836908e+00 -1.406355e+00 6.669715e+00 1.584566e+00 -5.888472e+00 -7.462641e+00 -3.350514e+00 -2.509433e+00 1.746146e+01 -2.835453e-01 1.460213e+00 1.911792e+00 -1.283270e+00 -1.889367e+00 -1.358224e-02 1.521574e-02 -7.713805e-01 5.855439e-01 1.864918e+00 2.502847e-01 -7.921861e-01 -1.297484e-01 -2.007958e-02 3.452484e-01 2.573285e-01 -1.054728e-01 5.874879e-02 -4.019813e-02 -6.190146e-01 -3.888986e-01 3.051080e-01 3.783757e-01 -1.043038e-01 1.391980e-01 -2.546883e-02
<VARIANCE> 39
 6.955420e+00 1.263309e+01 1.777974e+01 2.652509e+01 2.569049e+01 2.876795e+01 2.829580e+01 3.159115e+01 2.764486e+01 2.821322e+01 2.220917e+01 2.179295e+01 2.905459e+00 1.528602e-01 5.757488e-01 6.767445e-01 9.334972e-01 1.152018e+00 1.271364e+00 1.560907e+00 1.446134e+00 1.687011e+00 1.569515e+00 1.579934e+00 1.120681e+00 1.511147e-02 2.317265e-02 7.282182e-02 9.234639e-02 1.211192e-01 1.670284e-01 1.750111e-01 2.621807e-01 2.343033e-01 2.187435e-01 2.370847e-01 1.878099e-01 2.015641e-01 2.215422e-03
<GCONST> 7.573145e+01
<MIXTURE> 8 5.451200e-02
<MEAN> 39
 5.939264e+00 -1.083904e+01 -5.247269e+00 -3.910097e+00 -1.314430e+00 -2.867043e+00 -1.254750e+00 5.674955e+00 7.439156e+00 -2.682666e+00 -4.695579e+00 -8.420868e+00 1.837751e+01 -2.520919e-01 1.206812e-01 1.319231e+00 8.846319e-01 -1.415780e+00 -1.596094e+00 -5.679296e-02 1.497210e+00 -1.345985e-01 -7.965036e-01 -2.330523e-02 1.366912e+00 -5.624359e-02 -7.222053e-02 5.123966e-01 5.299006e-01 9.395940e-02 -4.033863e-01 -1.837068e-01 -1.546344e-01 -2.269737e-01 -4.831845e-01 1.823489e-01 4.667637e-01 5.822222e-01 -9.770717e-02
<VARIANCE> 39
 7.276831e+00 1.341302e+01 1.740538e+01 1.932078e+01 2.586747e+01 3.976300e+01 3.477558e+01 3.082218e+01 2.782645e+01 2.806754e+01 2.453377e+01 2.182016e+01 2.027278e+00 2.238687e-01 5.222800e-01 6.515664e-01 8.087997e-01 1.097812e+00 1.553061e+00 1.478694e+00 1.504123e+00 1.258658e+00 1.120016e+00 1.571738e+00 1.100844e+00 1.944664e-02 5.048103e-02 1.055135e-01 1.296198e-01 1.516021e-01 1.996169e-01 2.429633e-01 2.504697e-01 2.655258e-01 2.481477e-01 2.225063e-01 2.451302e-01 2.182226e-01 6.346287e-03
<GCONST> 7.935100e+01
<MIXTURE> 9 1.087399e-01
<MEAN> 39
 6.480608e+00 -6.023379e+00 -1.118181e+01 -3.180223e+00 7.361399e+00 2.309294e+00 5.099032e+00 -3.439591e+00 3.028674e+00 -4.168130e-01 -4.805237e+00 -4.952759e+00 1.566126e+01 -8.160046e-02 5.299156e-01 -8.204574e-02 2.512550e-01 1.786304e-01 2.439394e-01 -1.433441e-01 -2.216943e-01 -9.210675e-02 6.129302e-02 2.981018e-02 -3.820422e-02 -3.658925e-01 -1.577979e-01 1.023163e-01 3.107635e-01 4.768321e-02 -2.853341e-01 2.273239e-02 -2.523084e-01 3.136831e-01 -1.290418e-02 3.595614e-02 5.896005e-02 8.423837e-02 -9.733573e-02
<VARIANCE> 39
 1.115937e+01 1.765801e+01 2.234645e+01 4.776803e+01 3.354497e+01 4.486826e+01 4.768759e+01 3.254455e+01 3.133812e+01 4.329557e+01 3.092949e+01 3.166832e+01 3.708352e+00 5.779437e-01 1.113931e+00 1.059770e+00 1.513186e+00 1.656485e+00 1.734124e+00 1.825376e+00 1.889501e+00 1.595975e+00 1.648767e+00 1.531356e+00 1.384755e+00 9.649527e-02 1.289676e-01 1.834227e-01 2.411720e-01 2.581887e-01 2.891563e-01 2.881753e-01 3.317322e-01 3.335465e-01 2.965910e-01 2.810022e-01 2.642314e-01 2.310890e-01 1.532500e-02
<GCONST> 9.504842e+01
<MIXTURE> 10 6.255773e-02
<MEAN> 39
 3.820209e+00 -1.034752e+01 -7.627164e+00 -5.552994e+00 3.207557e+00 -4.062544e+00 -1.209877e+00 2.261984e+00 -1.260287e+00 -7.617288e+00 -7.059340e+00 -1.222338e+00 1.828419e+01 7.349789e-01 1.537036e+00 3.852344e-01 4.973036e-01 -5.401794e-01 -8.896688e-01 -1.074803e+00 -1.638162e-01 5.107750e-01 5.997629e-01 -1.414918e-01 1.348848e-02 -5.046058e-01 1.536572e-01 8.871773e-01 6.113235e-01 6.719663e-01 -4.114310e-01 1.303545e-02 -1.392346e-01 -4.029164e-01 -2.664813e-02 5.128492e-01 3.191282e-01 -5.058340e-02 -3.069690e-01
<VARIANCE> 39
 1.007009e+01 1.663030e+01 2.378139e+01 2.520516e+01 4.309785e+01 3.918137e+01 5.149841e+01 4.030666e+01 5.369605e+01 5.712801e+01 4.188116e+01 3.742482e+01 2.344980e+00 5.958308e-01 1.231597e+00 1.817112e+00 1.777837e+00 3.359256e+00 2.901326e+00 3.125901e+00 3.005759e+00 2.742809e+00 2.997161e+00 2.376157e+00 2.516904e+00 7.750637e-02 1.201574e-01 2.560378e-01 3.432003e-01 3.947209e-01 5.276402e-01 5.802960e-01 6.086133e-01 6.825320e-01 6.442261e-01 6.577230e-01 5.144269e-01 4.537006e-01 2.435043e-02
<GCONST> 1.076485e+02
<MIXTURE> 11 6.879387e-02
<MEAN> 39
 7.944196e+00 -8.872209e+00 -8.172671e+00 -1.016775e+01 4.332470e+00 6.811787e+00 -1.033874e+00 7.828847e-02 1.045349e+00 1.641143e+00 -1.385369e+00 -9.595984e+00 1.719347e+01 8.506923e-02 1.145608e+00 -2.200612e-01 4.407447e-01 6.905233e-02 -5.441299e-02 2.690964e-01 -2.183694e-01 -4.758024e-01 4.365183e-01 -4.272293e-02 4.193102e-01 -4.817508e-01 -2.085861e-01 5.550535e-01 2.208949e-01 6.413973e-01 -1.897192e-01 -3.877398e-01 1.843784e-01 -8.530364e-02 4.108737e-02 6.589039e-02 -1.319895e-01 4.692376e-01 -2.186392e-01
<VARIANCE> 39
 9.126874e+00 1.892819e+01 1.635413e+01 3.209376e+01 3.307054e+01 4.633681e+01 4.262707e+01 2.974310e+01 3.497004e+01 3.847215e+01 4.127586e+01 3.100439e+01 2.497695e+00 6.948439e-01 1.052909e+00 1.346618e+00 2.194129e+00 2.330976e+00 2.720500e+00 2.342904e+00 2.197406e+00 2.155141e+00 2.082103e+00 2.701449e+00 1.880331e+00 1.193038e-01 1.319576e-01 1.977790e-01 3.080655e-01 3.261439e-01 3.848512e-01 3.591171e-01 3.667017e-01 4.191574e-01 3.949258e-01 3.624378e-01 3.579062e-01 3.154740e-01 1.762230e-02
<GCONST> 1.001440e+02
<MIXTURE> 12 6.815450e-02
<MEAN> 39
 7.670567e+00 -5.312675e+00 -6.412222e+00 -5.587895e+00 3.417432e+00 -2.932611e+00 -3.565329e+00 1.851311e+00 8.741192e-01 5.567623e+00 -3.027754e+00 -7.246627e+00 1.673750e+01 -4.703150e-01 3.182123e+00 8.531960e-01 2.289327e+00 1.061418e+00 -4.123743e-01 -1.742409e-01 -8.639515e-01 -5.784852e-01 8.059587e-01 1.148510e-01 1.313423e+00 -1.259154e+00 -7.578123e-01 5.118909e-01 3.696334e-01 7.397770e-01 6.607197e-02 5.559748e-01 6.198689e-01 -9.118569e-02 2.592643e-01 -5.173347e-01 2.075783e-01 6.066777e-01 -3.692596e-01
<VARIANCE> 39
 9.251511e+00 1.917013e+01 2.307694e+01 3.583695e+01 2.868002e+01 5.223004e+01 4.864050e+01 4.720753e+01 4.774081e+01 3.706151e+01 6.001873e+01 3.228966e+01 2.331310e+00 1.391419e+00 2.304476e+00 2.520855e+00 2.905642e+00 3.710966e+00 4.922467e+00 4.587655e+00 4.351113e+00 4.609844e+00 4.111958e+00 3.660072e+00 3.163730e+00 3.286635e-01 3.233168e-01 4.441500e-01 4.689696e-01 5.868974e-01 5.477786e-01 7.521062e-01 7.559361e-01 8.818147e-01 8.260818e-01 6.386920e-01 9.421362e-01 5.675139e-01 4.699347e-02
<GCONST> 1.190058e+02
<MIXTURE> 13 7.297471e-02
<MEAN> 39
 2.194844e+00 -1.099839e+01 -6.620659e+00 -3.790648e+00 -1.398991e+00 -2.652560e+00 2.029820e+00 3.427411e-02 -8.373610e+00 -1.171116e+01 -2.776177e+00 -2.338529e-01 1.857713e+01 1.196200e-01 1.223319e+00 9.009541e-01 -6.614779e-01 -1.577076e+00 -6.804770e-01 4.394722e-01 2.664931e-02 -1.624667e-01 5.081363e-01 -5.903612e-02 -2.244242e-01 -2.401017e-01 2.264295e-01 7.612649e-01 4.939587e-01 1.066963e-01 -2.495560e-01 -2.499293e-01 -3.666212e-01 -9.310639e-02 5.376375e-01 6.164113e-01 -1.403814e-01 -3.812512e-02 -1.969353e-01
<VARIANCE> 39
 8.902184e+00 1.663981e+01 2.070004e+01 2.788079e+01 3.728378e+01 3.521708e+01 4.622622e+01 3.577329e+01 3.755608e+01 2.808808e+01 2.971015e+01 3.068370e+01 2.150157e+00 4.832113e-01 1.000749e+00 1.455997e+00 1.685098e+00 2.625954e+00 2.410308e+00 2.970144e+00 2.475400e+00 2.578708e+00 2.378193e+00 2.008014e+00 1.912995e+00 4.184388e-02 1.126128e-01 1.978627e-01 2.099936e-01 3.618344e-01 3.930850e-01 4.582773e-01 5.175945e-01 5.340486e-01 4.226084e-01 4.172947e-01 3.457902e-01 3.773426e-01 1.427526e-02
<GCONST> 9.876086e+01
<MIXTURE> 14 5.562816e-02
<MEAN> 39
 1.784566e+00 -1.058105e+01 -4.097671e+00 -5.343544e+00 -4.086437e+00 -1.758888e-01 4.928920e+00 -3.833899e-01 -9.614012e+00 -9.304185e+00 -2.469299e+00 -1.107007e+00 1.863845e+01 -2.581514e-01 8.535876e-01 1.088446e+00 -1.170429e+00 -1.506580e+00 8.306018e-02 6.194840e-01 -4.420245e-01 1.054140e-01 8.047985e-01 -1.777852e-01 -9.026741e-01 -7.356595e-02 -1.648051e-03 4.054451e-01 2.577017e-01 -2.710492e-01 -2.627055e-01 -1.664154e-01 -2.386674e-01 -1.055925e-01 4.209203e-01 3.401780e-01 -2.031889e-01 -1.102030e-01 -3.975924e-02
<VARIANCE> 39
 8.211896e+00 1.406091e+01 1.534630e+01 2.461339e+01 2.437608e+01 2.433597e+01 2.596481e+01 3.181905e+01 2.703074e+01 2.418324e+01 2.423050e+01 2.488970e+01 2.295027e+00 1.251291e-01 4.719566e-01 4.628016e-01 8.318157e-01 1.011986e+00 1.090952e+00 1.352396e+00 1.087831e+00 1.312021e+00 1.102804e+00 1.135202e+00 8.966438e-01 1.167884e-02 2.285509e-02 7.482366e-02 8.437532e-02 1.306122e-01 1.560793e-01 1.708357e-01 2.020066e-01 1.910923e-01 1.971562e-01 2.049996e-01 1.687824e-01 1.708641e-01 1.880664e-03
<GCONST> 7.102773e+01
<MIXTURE> 15 4.541144e-02
<MEAN> 39
 4.812773e+00 -1.011154e+01 -6.544261e+00 -3.772170e+00 2.195868e+00 -2.648445e+00 -5.897032e-02 4.655862e+00 1.923226e+00 -6.343264e+00 -9.546320e+00 -1.906909e+00 1.779969e+01 -2.870676e-01 3.514208e-01 1.155088e+00 3.415896e-01 -1.570117e+00 -1.145470e+00 7.941442e-01 1.077178e+00 -5.537845e-01 -6.143066e-01 4.689720e-01 8.123164e-01 -7.358433e-02 2.078320e-02 4.886419e-01 4.547328e-01 -2.281670e-03 -5.510245e-01 -1.537877e-01 -7.560052e-02 -2.171263e-01 -1.732012e-01 3.777654e-01 5.309618e-01 -3.190754e-02 -9.912980e-02
<VARIANCE> 39
 7.843439e+00 1.437706e+01 2.184299e+01 2.539405e+01 3.263616e+01 3.674028e+01 4.618097e+01 3.659708e+01 4.483902e+01 4.321060e+01 2.104337e+01 2.333945e+01 3.103449e+00 2.060868e-01 6.418536e-01 6.473349e-01 8.884422e-01 1.373903e+00 1.421164e+00 1.857384e+00 1.428695e+00 1.492142e+00 1.557174e+00 1.509430e+00 1.163216e+00 2.316087e-02 4.887570e-02 1.058691e-01 1.428178e-01 2.016634e-01 2.410350e-01 2.760288e-01 3.314014e-01 3.336030e-01 3.151320e-01 3.094249e-01 2.503763e-01 2.323012e-01 5.726628e-03
<GCONST> 8.479230e+01
<MIXTURE> 16 3.542746e-02
<MEAN> 39
 4.139624e+00 -9.662445e+00 -5.036798e-01 -3.132199e+00 -6.619452e+00 -8.122220e+00 8.606902e-01 9.213677e+00 4.135600e+00 -5.066290e+00 -3.460520e+00 -2.193726e+00 1.838145e+01 -5.601342e-01 1.285629e+00 2.666071e+00 2.295649e-01 -2.593631e+00 -1.019192e+00 -2.729159e-02 -3.325667e-01 -1.612545e+00 3.572138e-01 2.094041e+00 1.401919e+00 -1.319323e-01 -5.964023e-02 4.152653e-01 3.489338e-01 -1.209227e-01 5.503772e-02 4.814343e-01 -3.052179e-01 -9.230791e-01 -4.279331e-01 3.955972e-01 2.790073e-01 -2.080649e-01 -4.246668e-02
<VARIANCE> 39
 7.018352e+00 1.188701e+01 1.683944e+01 1.925926e+01 2.584237e+01 3.325632e+01 4.202706e+01 2.924967e+01 3.289150e+01 2.856188e+01 2.561798e+01 1.978687e+01 2.220595e+00 2.054393e-01 5.119616e-01 9.409412e-01 9.237004e-01 1.228360e+00 1.370448e+00 1.769490e+00 1.746271e+00 1.766859e+00 1.791517e+00 1.670405e+00 1.671587e+00 1.781200e-02 3.017088e-02 7.768621e-02 1.134418e-01 1.376319e-01 2.015264e-01 2.405953e-01 2.831863e-01 2.733033e-01 2.423953e-01 2.484325e-01 2.451095e-01 2.163909e-01 2.694116e-03
<GCONST> 7.956852e+01
~s "a4m"
<NUMMIXES> 16
<MIXTURE> 1 4.124153e-02
<MEAN> 39
 5.387506e+00 2.096670e+00 -2.341426e+00 1.971358e+00 -2.179158e+00 -7.409233e+00 3.220376e-01 8.240688e-01 2.513310e-01 -7.473520e+00 -4.643577e+00 2.748283e+00 1.474923e+01 -1.033026e+00 2.888762e+00 2.354174e+00 3.494583e+00 1.891108e+00 1.790509e+00 4.871688e-01 1.091935e+00 1.713001e+00 2.973216e+00 2.293669e+00 1.500749e-02 -1.826772e+00 -7.273308e-01 -9.021827e-01 -1.761936e-01 1.007100e-01 6.193131e-01 1.259501e+00 5.786434e-01 3.420179e-01 1.294436e-01 6.998017e-01 6.321791e-01 -1.760170e-01 -1.302935e-01
<VARIANCE> 39
 8.086963e+00 1.482854e+01 2.237814e+01 2.428163e+01 3.555527e+01 3.078074e+01 3.406195e+01 3.491243e+01 3.538174e+01 2.658782e+01 3.792098e+01 2.479845e+01 2.979323e+00 1.602007e+00 2.515807e+00 2.716092e+00 3.291698e+00 3.961986e+00 3.768514e+00 3.991227e+00 4.583985e+00 4.434750e+00 4.131019e+00 3.941125e+00 3.271151e+00 3.296209e-01 1.889784e-01 3.179340e-01 3.848504e-01 4.621109e-01 6.282139e-01 5.352449e-01 6.475732e-01 6.870345e-01 6.449345e-01 4.899189e-01 6.480477e-01 4.909554e-01 5.616018e-02
<GCONST> 1.135593e+02
<MIXTURE> 2 6.031390e-02
<MEAN> 39
 6.476042e+00 -6.624236e+00 -9.159792e-01 1.511180e-01 -5.265365e+00 -6.116620e+00 -3.029239e+00 7.263082e+00 2.792459e+00 -2.009104e+00 -4.115796e+00 -1.165583e+00 1.663315e+01 -3.760784e-01 2.817956e+00 2.436189e+00 1.956121e+00 -2.538292e-01 -1.202360e+00 -1.100294e-01 -1.298170e+00 -1.149468e+00 3.000597e-02 5.537193e-01 1.759564e+00 -8.367055e-01 -3.733230e-01 5.244731e-01 2.781040e-02 -1.787851e-02 7.263324e-01 6.257265e-01 3.770672e-01 -8.456947e-01 -2.570493e-01 3.256767e-02 1.605398e-01 -2.406522e-01 -1.032292e-01
<VARIANCE> 39
 1.034973e+01 2.048986e+01 2.546364e+01 2.172568e+01 3.300632e+01 4.466266e+01 4.293125e+01 3.352460e+01 4.476942e+01 3.255318e+01 3.155808e+01 2.726307e+01 2.995648e+00 1.351512e+00 2.082956e+00 2.201966e+00 2.864485e+00 4.416948e+00 3.725158e+00 4.415650e+00 4.319251e+00 4.841052e+00 3.447391e+00 3.527619e+00 3.447469e+00 1.926104e-01 3.061835e-01 3.192726e-01 3.604561e-01 4.280649e-01 5.336128e-01 6.962274e-01 6.047796e-01 6.847387e-01 6.487442e-01 4.977735e-01 5.365404e-01 4.524206e-01 3.635191e-02
<GCONST> 1.134215e+02
<MIXTURE> 3 5.162344e-02
<MEAN> 39
 4.017886e+00 -6.795847e+00 3.858613e+00 -2.367745e+00 -9.923589e+00 -8.467074e+00 4.092316e-01 7.357609e+00 1.308029e+00 -3.088683e+00 1.156335e-01 -3.392958e-01 1.761699e+01 -4.718672e-01 1.458687e+00 2.486348e+00 1.134402e-01 -1.670367e+00 -2.044647e-01 -4.162680e-01 -1.436092e+00 -1.719099e+00 5.886271e-01 1.681550e+00 8.209412e-01 -1.715211e-01 1.279301e-02 1.836617e-01 -8.580489e-02 -8.796959e-03 4.877343e-01 3.998894e-01 -2.071995e-01 -5.202137e-01 -8.709396e-02 2.192198e-02 -2.422940e-01 -3.077352e-01 -3.517089e-02
<VARIANCE> 39
 7.821859e+00 1.334359e+01 1.648686e+01 1.906067e+01 2.302894e+01 3.092443e+01 3.873550e+01 2.805033e+01 3.033759e+01 2.338937e+01 2.104667e+01 1.674933e+01 2.799589e+00 2.420545e-01 6.383960e-01 1.141364e+00 9.163600e-01 1.231064e+00 1.259672e+00 1.616097e+00 1.714476e+00 1.778914e+00 1.818262e+00 1.555112e+00 1.417377e+00 2.363581e-02 4.096557e-02 1.000035e-01 1.180195e-01 1.375153e-01 1.691303e-01 2.181167e-01 2.573435e-01 2.744922e-01 2.133566e-01 2.065339e-01 1.953381e-01 2.013057e-01 4.324846e-03
<GCONST> 7.957832e+01
<MIXTURE> 4 7.110656e-02
<MEAN> 39
 4.235621e+00 -9.000665e+00 -8.340055e+00 3.252558e+00 7.050601e+00 5.039616e+00 -2.205078e-01 1.816384e-01 -4.757132e-02 -7.928383e+00 -5.418813e+00 1.855448e+00 1.440757e+01 -1.562068e+00 1.616275e+00 8.029389e-01 1.253694e+00 7.292545e-01 7.429252e-01 1.175377e+00 1.159248e+00 9.701341e-01 8.118362e-01 1.091089e+00 5.047287e-01 -1.233032e+00 -4.965955e-01 3.500131e-01 3.195424e-01 1.793463e-01 -7.091896e-02 2.895959e-02 4.623057e-01 3.513762e-01 3.292345e-01 8.026784e-01 7.098819e-01 5.214994e-02 -1.258305e-01
<VARIANCE> 39
 1.196118e+01 3.194818e+01 2.821446e+01 4.076009e+01 3.516473e+01 3.248924e+01 4.901171e+01 4.269273e+01 3.881923e+01 3.654974e+01 3.869809e+01 3.716558e+01 4.927921e+00 1.644894e+00 3.204692e+00 2.417687e+00 2.631327e+00 2.905829e+00 2.784381e+00 3.233193e+00 3.188827e+00 3.081650e+00 3.495335e+00 2.895964e+00 2.362806e+00 3.988658e-01 2.333961e-01 5.114385e-01 4.505662e-01 4.832478e-01 4.575402e-01 4.154230e-01 5.912797e-01 5.795070e-01 5.101205e-01 4.915686e-01 4.944171e-01 4.906586e-01 5.573585e-02
<GCONST> 1.147304e+02
<MIXTURE> 5 7.658546e-02
<MEAN> 39
 5.866925e-02 -4.162010e+00 -9.112689e+00 1.282078e+00 8.384413e+00 6.221625e+00 7.465830e+00 3.976939e+00 5.700645e+00 8.990227e-01 -5.520578e+00 -2.135850e+00 1.144944e+01 -1.847750e+00 1.037623e+00 8.088965e-01 1.469368e+00 -4.770776e-02 4.884779e-01 3.968894e-01 1.104366e+00 5.344266e-01 4.358482e-01 1.373528e+00 1.347236e+00 -1.037060e+00 1.140089e-01 -9.433522e-02 2.563846e-01 -1.756137e-01 -3.043055e-01 -3.874123e-01 -4.274222e-01 -3.685377e-01 -3.269998e-01 -1.635301e-02 3.924104e-01 7.385114e-02 2.164562e-01
<VARIANCE> 39
 1.441203e+01 1.953238e+01 2.750967e+01 3.514120e+01 3.831774e+01 4.201781e+01 3.482857e+01 4.479537e+01 3.913878e+01 4.490815e+01 3.477371e+01 4.322258e+01 3.867692e+00 2.060298e+00 3.149940e+00 3.134307e+00 3.139658e+00 3.217065e+00 3.961617e+00 3.672682e+00 3.884559e+00 3.638776e+00 3.668252e+00 3.572435e+00 3.523082e+00 4.246084e-01 3.023530e-01 3.659794e-01 4.129418e-01 4.373314e-01 5.097336e-01 5.339640e-01 5.235533e-01 6.875920e-01 5.939621e-01 5.497537e-01 5.101325e-01 5.045874e-01 4.715002e-02
<GCONST> 1.169280e+02
<MIXTURE> 6 4.899765e-02
<MEAN> 39
 2.330669e+00 -1.676182e+00 5.103767e+00 -8.656624e+00 -1.263922e+01 -6.561320e-01 4.224073e+00 -2.346596e+00 -1.765325e+00 5.860628e-01 -2.572575e+00 -3.107628e+00 1.685988e+01 -3.312714e-01 2.487161e+00 2.461368e+00 -1.078256e+00 -8.606732e-01 -4.929702e-02 -2.316173e+00 -1.717565e+00 1.010375e+00 1.892502e+00 5.086824e-02 4.407017e-01 -2.280708e-01 7.997723e-03 6.139943e-02 -1.957047e-01 4.738481e-01 7.474882e-01 -2.148825e-02 -4.596970e-01 -2.948947e-02 -2.681945e-01 -5.675068e-01 -7.585940e-02 3.459549e-01 -5.447633e-02
<VARIANCE> 39
 6.907231e+00 1.715250e+01 1.845134e+01 2.419977e+01 2.312565e+01 3.575432e+01 3.364252e+01 2.973447e+01 2.719846e+01 2.771098e+01 2.294453e+01 1.922532e+01 3.023150e+00 2.976793e-01 8.260599e-01 9.541507e-01 1.366160e+00 1.662008e+00 1.727489e+00 2.301078e+00 2.076910e+00 2.231416e+00 2.085415e+00 1.695167e+00 1.740248e+00 3.612948e-02 6.544731e-02 1.524852e-01 1.479415e-01 2.254767e-01 2.507007e-01 2.819872e-01 4.657221e-01 3.268869e-01 3.488885e-01 3.375661e-01 3.087309e-01 2.636373e-01 8.689706e-03
<GCONST> 8.884722e+01
<MIXTURE> 7 8.889052e-02
<MEAN> 39
 8.776151e+00 -4.953688e+00 -6.655004e+00 -5.700016e+00 1.537291e+00 2.270241e+00 -3.595449e+00 -8.975347e-01 1.517563e+00 1.459880e+00 -1.615161e+00 -6.200089e+00 1.643809e+01 3.242724e-01 1.516153e+00 1.606612e+00 1.436655e+00 -1.194099e+00 -2.240357e-01 -1.171632e-01 -1.407979e+00 -1.182949e+00 6.160523e-01 4.335417e-01 1.029368e+00 -5.778927e-01 -1.654458e-01 2.606277e-02 3.023846e-01 2.684693e-01 -9.600869e-02 -1.172341e-01 1.989466e-01 -1.580081e-01 -1.200922e-01 -2.249470e-01 -1.622840e-01 2.078412e-01 -7.025118e-03
<VARIANCE> 39
 7.960058e+00 1.669454e+01 1.985420e+01 4.062514e+01 3.136333e+01 5.011833e+01 4.259999e+01 3.777261e+01 4.036549e+01 4.252036e+01 4.669941e+01 2.882266e+01 2.876208e+00 5.386395e-01 1.277510e+00 2.640766e+00 4.208644e+00 2.874984e+00 3.098809e+00 3.241055e+00 4.205725e+00 3.681989e+00 3.274012e+00 3.121924e+00 2.437091e+00 1.229185e-01 6.908543e-02 1.295261e-01 2.435442e-01 3.035063e-01 3.137107e-01 3.563742e-01 3.627009e-01 4.550755e-01 3.710371e-01 3.549884e-01 4.060590e-01 3.093151e-01 8.472092e-03
<GCONST> 1.027823e+02
<MIXTURE> 8 5.736842e-02
<MEAN> 39
 6.197957e+00 2.553319e+00 -4.946103e+00 9.052540e-01 5.156907e+00 -5.545660e+00 -3.612285e+00 -1.373658e+00 4.178000e+00 4.456348e+00 -7.413972e+00 -1.996109e+00 1.390844e+01 -1.811849e+00 3.016759e+00 2.160207e+00 3.105553e+00 1.082536e+00 1.002068e+00 8.072463e-01 1.273527e-01 2.747244e-02 3.291056e-01 1.699422e+00 1.132247e+00 -1.673855e+00 -8.096866e-01 -8.658030e-01 -1.224283e-02 -1.236647e-01 -1.421023e-01 8.792651e-01 8.371034e-01 4.916258e-01 -1.027213e-01 -4.816452e-01 7.119715e-01 8.876006e-02 4.551759e-02
<VARIANCE> 39
 1.061367e+01 1.711111e+01 2.141307e+01 2.937674e+01 2.609593e+01 3.133334e+01 3.371819e+01 4.062731e+01 3.050768e+01 3.562530e+01 3.037593e+01 2.448011e+01 4.142709e+00 2.552011e+00 3.203628e+00 3.439151e+00 3.851502e+00 4.346889e+00 5.643061e+00 5.658878e+00 5.819156e+00 5.241637e+00 5.809975e+00 5.434032e+00 4.357396e+00 4.912751e-01 2.871829e-01 4.106312e-01 4.063400e-01 5.128579e-01 5.220044e-01 5.366080e-01 6.080251e-01 7.504943e-01 5.769637e-01 5.289938e-01 5.827713e-01 4.573075e-01 7.321723e-02
<GCONST> 1.186386e+02
<MIXTURE> 9 7.805658e-02
<MEAN> 39
 5.731517e+00 -5.780125e+00 -8.282106e+00 -3.367464e+00 3.619446e+00 -3.888559e+00 -4.647728e+00 2.467205e+00 -2.253438e+00 -7.730431e+00 -5.145464e+00 -3.582153e+00 1.695462e+01 5.804772e-01 1.591989e+00 1.313928e+00 6.858925e-01 -1.131305e+00 -6.204684e-01 -4.617190e-01 -5.225794e-01 -1.614622e-01 1.021469e+00 -4.662485e-02 -4.085073e-02 -5.096732e-01 1.906529e-02 8.979526e-02 5.428439e-01 2.282458e-01 -4.219935e-01 2.081473e-01 1.980973e-01 -5.362471e-01 -9.361831e-03 2.417144e-01 1.929412e-02 1.200599e-01 -6.021322e-02
<VARIANCE> 39
 8.879082e+00 1.593178e+01 2.141186e+01 3.080224e+01 4.281876e+01 4.943868e+01 5.256847e+01 4.000311e+01 5.799936e+01 5.845639e+01 4.022956e+01 3.948752e+01 2.720993e+00 5.647956e-01 1.231055e+00 2.182811e+00 2.241547e+00 3.041454e+00 2.799606e+00 3.007170e+00 3.248941e+00 3.098788e+00 2.842714e+00 2.436804e+00 2.390396e+00 8.589770e-02 7.503682e-02 1.261773e-01 3.067973e-01 2.874537e-01 4.018217e-01 4.787400e-01 4.946484e-01 5.596434e-01 5.174857e-01 4.623004e-01 4.320226e-01 3.750940e-01 6.646182e-03
<GCONST> 1.037740e+02
<MIXTURE> 10 8.897277e-02
<MEAN> 39
